{"learner":{"attributes":{"best_iteration":"99","best_score":"0.165371653697704"},"feature_names":["id","bedrooms","bathrooms","sqft_living","sqft_lot","floors","waterfront","view","condition","grade","sqft_above","sqft_basement","yr_built","yr_renovated","zipcode","lat","long","sqft_living15","sqft_lot15","scaled_sqft_living"],"feature_types":["int","int","float","float","int","float","int","int","int","int","int","int","int","int","int","float","float","int","int","float"],"gradient_booster":{"model":{"gbtree_model_param":{"num_parallel_tree":"1","num_trees":"100"},"iteration_indptr":[0,1,2,3,4,5,6,7,8,9,10,11,12,13,14,15,16,17,18,19,20,21,22,23,24,25,26,27,28,29,30,31,32,33,34,35,36,37,38,39,40,41,42,43,44,45,46,47,48,49,50,51,52,53,54,55,56,57,58,59,60,61,62,63,64,65,66,67,68,69,70,71,72,73,74,75,76,77,78,79,80,81,82,83,84,85,86,87,88,89,90,91,92,93,94,95,96,97,98,99,100],"tree_info":[0,0,0,0,0,0,0,0,0,0,0,0,0,0,0,0,0,0,0,0,0,0,0,0,0,0,0,0,0,0,0,0,0,0,0,0,0,0,0,0,0,0,0,0,0,0,0,0,0,0,0,0,0,0,0,0,0,0,0,0,0,0,0,0,0,0,0,0,0,0,0,0,0,0,0,0,0,0,0,0,0,0,0,0,0,0,0,0,0,0,0,0,0,0,0,0,0,0,0,0],"trees":[{"base_weights":[2.574472E-8,-3.8927245E-1,2.2976777E-1,-5.6942683E-1,-9.3743324E-2,3.7806354E-2,6.38979E-1,-7.1831316E-1,-4.761335E-1,-1.980435E-1,2.1587381E-1,-1.3714744E-1,1.630544E-1,5.208414E-1,1.0426035E0,-3.1507483E-1,-7.353371E-1,-4.953621E-1,-1.4582783E-1,-2.5491163E-1,9.41424E-3,6.4607136E-2,4.17915E-1,-6.67434E-2,-3.0653554E-1,2.2936966E-1,-2.0374136E-2,3.814436E-1,6.5515745E-1,1.2549208E0,8.551227E-1,-4.7238253E-2,-1.9708132E-2,-8.5216425E-2,-6.8005286E-2,-5.6154337E-2,-4.2265914E-2,1.6320674E-2,-2.4209565E-2,-3.5408083E-2,-1.3473707E-2,-1.0135507E-2,1.207344E-2,-8.307913E-3,2.278734E-2,3.410548E-2,8.0521844E-2,-2.7059916E-2,1.3264421E-3,-4.0455773E-2,-2.3744514E-2,1.2813993E-2,3.2828998E-2,-9.838805E-3,9.597155E-3,4.4775978E-2,1.558392E-2,8.548071E-2,5.2556902E-2,9.174844E-2,1.451546E-1,7.0269644E-2,1.0736542E-1],"categories":[],"categories_nodes":[],"categories_segments":[],"categories_sizes":[],"default_left":[0,0,0,0,0,0,0,0,0,0,0,0,0,0,0,0,0,0,0,0,0,0,0,0,0,0,0,0,0,0,0,0,0,0,0,0,0,0,0,0,0,0,0,0,0,0,0,0,0,0,0,0,0,0,0,0,0,0,0,0,0,0,0],"id":0,"left_children":[1,3,5,7,9,11,13,15,17,19,21,23,25,27,29,31,33,35,37,39,41,43,45,47,49,51,53,55,57,59,61,-1,-1,-1,-1,-1,-1,-1,-1,-1,-1,-1,-1,-1,-1,-1,-1,-1,-1,-1,-1,-1,-1,-1,-1,-1,-1,-1,-1,-1,-1,-1,-1],"loss_changes":[1.4499485E3,3.20297E2,8.007427E2,5.1579224E1,7.367107E1,1.5209596E2,1.546659E2,9.6397705E0,1.4542114E1,2.0129326E1,1.754621E1,3.4516094E1,4.9208504E1,4.6932922E1,2.8223633E1,1.0205793E0,8.327026E0,1.02230835E1,3.847521E0,1.5909981E1,4.549992E0,7.975952E0,7.048355E0,3.3390274E1,5.660469E0,2.9708572E1,9.7667675E0,1.8467178E1,3.2718994E1,2.1425781E1,1.2369659E1,0E0,0E0,0E0,0E0,0E0,0E0,0E0,0E0,0E0,0E0,0E0,0E0,0E0,0E0,0E0,0E0,0E0,0E0,0E0,0E0,0E0,0E0,0E0,0E0,0E0,0E0,0E0,0E0,0E0,0E0,0E0,0E0],"parents":[2147483647,0,0,1,1,2,2,3,3,4,4,5,5,6,6,7,7,8,8,9,9,10,10,11,11,12,12,13,13,14,14,15,15,16,16,17,17,18,18,19,19,20,20,21,21,22,22,23,23,24,24,25,25,26,26,27,27,28,28,29,29,30,30],"right_children":[2,4,6,8,10,12,14,16,18,20,22,24,26,28,30,32,34,36,38,40,42,44,46,48,50,52,54,56,58,60,62,-1,-1,-1,-1,-1,-1,-1,-1,-1,-1,-1,-1,-1,-1,-1,-1,-1,-1,-1,-1,-1,-1,-1,-1,-1,-1,-1,-1,-1,-1,-1,-1],"split_conditions":[4.75297E1,7.6108527E0,7.791523E0,7.2004247E0,9E0,7.333023E0,8.202482E0,-1.22377E2,1E0,1.4027E4,8.058328E0,4.77026E1,4.77095E1,9E0,-1.22184E2,4.74413E1,6.897705E0,4.73992E1,-1.22368E2,4.74278E1,7.816014E0,4.739E1,1.1E1,4.75732E1,7.07327E0,8E0,8E0,4.77179E1,-1.22188E2,1E1,1.1E1,-4.7238253E-2,-1.9708132E-2,-8.5216425E-2,-6.8005286E-2,-5.6154337E-2,-4.2265914E-2,1.6320674E-2,-2.4209565E-2,-3.5408083E-2,-1.3473707E-2,-1.0135507E-2,1.207344E-2,-8.307913E-3,2.278734E-2,3.410548E-2,8.0521844E-2,-2.7059916E-2,1.3264421E-3,-4.0455773E-2,-2.3744514E-2,1.2813993E-2,3.2828998E-2,-9.838805E-3,9.597155E-3,4.4775978E-2,1.558392E-2,8.548071E-2,5.2556902E-2,9.174844E-2,1.451546E-1,7.0269644E-2,1.0736542E-1],"split_indices":[15,3,3,3,9,3,3,16,7,18,3,15,15,9,16,15,3,15,16,15,3,15,9,15,3,9,9,15,16,9,9,0,0,0,0,0,0,0,0,0,0,0,0,0,0,0,0,0,0,0,0,0,0,0,0,0,0,0,0,0,0,0,0],"split_type":[0,0,0,0,0,0,0,0,0,0,0,0,0,0,0,0,0,0,0,0,0,0,0,0,0,0,0,0,0,0,0,0,0,0,0,0,0,0,0,0,0,0,0,0,0,0,0,0,0,0,0,0,0,0,0,0,0,0,0,0,0,0,0],"sum_hessian":[1.6209E4,6.016E3,1.0193E4,3.737E3,2.279E3,6.939E3,3.254E3,1.437E3,2.3E3,1.705E3,5.74E2,2.895E3,4.044E3,2.519E3,7.35E2,5.9E1,1.378E3,2.173E3,1.27E2,1.338E3,3.67E2,3.29E2,2.45E2,2.046E3,8.49E2,2.97E3,1.074E3,1.238E3,1.281E3,3.42E2,3.93E2,2.4E1,3.5E1,4.38E2,9.4E2,1.134E3,1.039E3,3E1,9.7E1,7.32E2,6.06E2,1.84E2,1.83E2,1.73E2,1.56E2,2.06E2,3.9E1,5.76E2,1.47E3,3.49E2,5E2,1.469E3,1.501E3,6.43E2,4.31E2,9.56E2,2.82E2,5.02E2,7.79E2,1.28E2,2.14E2,2.34E2,1.59E2],"tree_param":{"num_deleted":"0","num_feature":"20","num_nodes":"63","size_leaf_vector":"1"}},{"base_weights":[2.0015128E-5,-3.5038581E-1,2.0684676E-1,-4.818702E-1,-1.8932523E-2,6.959503E-2,6.734252E-1,-6.075917E-1,-3.6113E-1,-1.3115288E-1,1.9321868E-1,-9.6137986E-2,2.0752268E-1,5.6602377E-1,1.0275166E0,-7.0559937E-1,-5.4630303E-1,-3.8207123E-1,-7.238613E-2,-2.0001988E-1,4.84116E-2,1.02432325E-1,4.8020053E-1,-2.6493633E-2,-2.2829981E-1,2.6607004E-1,3.3793796E-2,8.1414384E-1,4.895159E-1,1.2706661E0,8.404215E-1,-3.829102E-2,-7.4151896E-2,-6.1476555E-2,-4.6212453E-2,-4.444066E-2,-3.0122105E-2,1.18695E-2,-2.1990342E-2,-2.316316E-2,8.306979E-3,2.4813074E-3,5.8745373E-2,-2.3887733E-3,1.9118486E-2,2.8021608E-2,6.273466E-2,-2.4570182E-2,4.7173407E-3,-3.2443013E-2,-1.4858765E-2,1.9402208E-2,4.093823E-2,-5.7429355E-3,1.24619445E-2,7.06113E-2,9.630539E-2,3.8861554E-2,6.0803723E-2,1.1167449E-1,1.577985E-1,6.9003314E-2,9.892384E-2],"categories":[],"categories_nodes":[],"categories_segments":[],"categories_sizes":[],"default_left":[0,0,0,0,0,0,0,0,0,0,0,0,0,0,0,0,0,0,0,0,0,0,0,0,0,0,0,0,0,0,0,0,0,0,0,0,0,0,0,0,0,0,0,0,0,0,0,0,0,0,0,0,0,0,0,0,0,0,0,0,0,0,0],"id":1,"left_children":[1,3,5,7,9,11,13,15,17,19,21,23,25,27,29,31,33,35,37,39,41,43,45,47,49,51,53,55,57,59,61,-1,-1,-1,-1,-1,-1,-1,-1,-1,-1,-1,-1,-1,-1,-1,-1,-1,-1,-1,-1,-1,-1,-1,-1,-1,-1,-1,-1,-1,-1,-1,-1],"loss_changes":[1.1748646E3,2.622173E2,6.527637E2,6.51745E1,4.0736477E1,1.8010445E2,8.753381E1,1.2282715E1,1.3274963E1,1.3847311E1,1.5374802E1,3.2936234E1,4.372789E1,3.339142E1,2.340686E1,9.081482E0,7.219391E0,1.0202789E1,4.2542667E0,7.2589455E0,3.94153E0,5.060829E0,4.0028305E0,3.787963E1,9.415298E0,3.3126923E1,8.996819E0,6.0443115E0,1.6063599E1,9.212036E0,6.188141E0,0E0,0E0,0E0,0E0,0E0,0E0,0E0,0E0,0E0,0E0,0E0,0E0,0E0,0E0,0E0,0E0,0E0,0E0,0E0,0E0,0E0,0E0,0E0,0E0,0E0,0E0,0E0,0E0,0E0,0E0,0E0,0E0],"parents":[2147483647,0,0,1,1,2,2,3,3,4,4,5,5,6,6,7,7,8,8,9,9,10,10,11,11,12,12,13,13,14,14,15,15,16,16,17,17,18,18,19,19,20,20,21,21,22,22,23,23,24,24,25,25,26,26,27,27,28,28,29,29,30,30],"right_children":[2,4,6,8,10,12,14,16,18,20,22,24,26,28,30,32,34,36,38,40,42,44,46,48,50,52,54,56,58,60,62,-1,-1,-1,-1,-1,-1,-1,-1,-1,-1,-1,-1,-1,-1,-1,-1,-1,-1,-1,-1,-1,-1,-1,-1,-1,-1,-1,-1,-1,-1,-1,-1],"split_conditions":[4.75297E1,7.700748E0,9E0,7.3395376E0,7.9655457E0,7.420579E0,8.25062E0,7.029973E0,1E0,1.2118E4,1E1,4.76962E1,4.77146E1,1.974E3,-1.22194E2,-1.22368E2,4.74349E1,4.74136E1,-1.22322E2,1E0,1E0,4.73864E1,4.739E1,4.7567E1,7.1623974E0,7.770645E0,8E0,2.84E3,7.9996786E0,8.465899E0,1.1E1,-3.829102E-2,-7.4151896E-2,-6.1476555E-2,-4.6212453E-2,-4.444066E-2,-3.0122105E-2,1.18695E-2,-2.1990342E-2,-2.316316E-2,8.306979E-3,2.4813074E-3,5.8745373E-2,-2.3887733E-3,1.9118486E-2,2.8021608E-2,6.273466E-2,-2.4570182E-2,4.7173407E-3,-3.2443013E-2,-1.4858765E-2,1.9402208E-2,4.093823E-2,-5.7429355E-3,1.24619445E-2,7.06113E-2,9.630539E-2,3.8861554E-2,6.0803723E-2,1.1167449E-1,1.577985E-1,6.9003314E-2,9.892384E-2],"split_indices":[15,3,9,3,3,3,3,3,7,18,9,15,15,12,16,16,15,15,16,7,6,15,15,15,3,3,9,17,3,3,9,0,0,0,0,0,0,0,0,0,0,0,0,0,0,0,0,0,0,0,0,0,0,0,0,0,0,0,0,0,0,0,0],"split_type":[0,0,0,0,0,0,0,0,0,0,0,0,0,0,0,0,0,0,0,0,0,0,0,0,0,0,0,0,0,0,0,0,0,0,0,0,0,0,0,0,0,0,0,0,0,0,0,0,0,0,0,0,0,0,0,0,0,0,0,0,0,0,0],"sum_hessian":[1.6209E4,6.016E3,1.0193E4,4.307E3,1.709E3,7.877E3,2.316E3,2.108E3,2.199E3,1.118E3,5.91E2,3.578E3,4.299E3,1.779E3,5.37E2,8.07E2,1.301E3,2.05E3,1.49E2,8.08E2,3.1E2,4.5E2,1.41E2,2.344E3,1.234E3,3.215E3,1.084E3,4.17E2,1.362E3,2.31E2,3.06E2,8.2E1,7.25E2,7.14E2,5.87E2,1.155E3,8.95E2,6.5E1,8.4E1,7.27E2,8.1E1,2.98E2,1.2E1,1.86E2,2.64E2,6.1E1,8E1,5.89E2,1.755E3,5.58E2,6.76E2,2.141E3,1.074E3,5.41E2,5.43E2,2.45E2,1.72E2,7.38E2,6.24E2,1.57E2,7.4E1,1.55E2,1.51E2],"tree_param":{"num_deleted":"0","num_feature":"20","num_nodes":"63","size_leaf_vector":"1"}},{"base_weights":[5.21183E-5,-1.13405846E-1,5.1973253E-1,-3.6428028E-1,6.799986E-2,3.916053E-1,7.7452815E-1,-5.0298095E-1,-2.1074583E-1,-8.170949E-2,1.9209753E-1,4.853937E-2,4.7025728E-1,3.750986E-1,8.419311E-1,-6.063717E-1,-4.4265866E-1,-2.5297153E-1,-1.6686287E-2,-2.0879237E-2,-2.2008021E-1,2.507308E-1,3.7059158E-2,-6.329561E-2,1.8855257E-1,6.938615E-1,4.0337807E-1,2.9322335E-1,6.840186E-1,1.0486082E0,6.829502E-1,-1.7306017E-2,-6.290531E-2,-5.059073E-2,-3.579834E-2,-3.2081768E-2,-1.6846195E-2,-5.923513E-3,2.3033539E-2,-2.0863269E-2,2.9147111E-3,-2.945233E-2,-1.3509378E-2,1.8241396E-2,3.7552614E-2,2.761253E-3,8.083611E-2,-9.066223E-3,1.43451085E-2,4.7003683E-2,1.5205765E-2,6.416756E-2,9.501065E-2,3.4518752E-2,5.489502E-2,1.8971061E-2,4.4211805E-2,2.5827816E-2,7.619529E-2,9.485417E-2,1.4628845E-1,5.775549E-2,8.5071616E-2],"categories":[],"categories_nodes":[],"categories_segments":[],"categories_sizes":[],"default_left":[0,0,0,0,0,0,0,0,0,0,0,0,0,0,0,0,0,0,0,0,0,0,0,0,0,0,0,0,0,0,0,0,0,0,0,0,0,0,0,0,0,0,0,0,0,0,0,0,0,0,0,0,0,0,0,0,0,0,0,0,0,0,0],"id":2,"left_children":[1,3,5,7,9,11,13,15,17,19,21,23,25,27,29,31,33,35,37,39,41,43,45,47,49,51,53,55,57,59,61,-1,-1,-1,-1,-1,-1,-1,-1,-1,-1,-1,-1,-1,-1,-1,-1,-1,-1,-1,-1,-1,-1,-1,-1,-1,-1,-1,-1,-1,-1,-1,-1],"loss_changes":[9.55831E2,6.055816E2,9.453406E1,1.1880713E2,1.4349808E2,5.2188965E1,2.5826172E1,1.8023987E1,2.1727043E1,2.9463762E1,3.8379517E1,5.680266E0,2.3258453E1,3.3910217E0,2.6555786E1,1.048584E1,9.758881E0,1.2433853E1,5.0061255E0,2.2858324E1,6.7234E0,2.6054016E1,8.429676E0,1.1559131E0,1.5824394E0,4.217758E0,1.0094208E1,1.6731501E0,7.6541805E-1,1.34947815E1,7.8544464E0,0E0,0E0,0E0,0E0,0E0,0E0,0E0,0E0,0E0,0E0,0E0,0E0,0E0,0E0,0E0,0E0,0E0,0E0,0E0,0E0,0E0,0E0,0E0,0E0,0E0,0E0,0E0,0E0,0E0,0E0,0E0,0E0],"parents":[2147483647,0,0,1,1,2,2,3,3,4,4,5,5,6,6,7,7,8,8,9,9,10,10,11,11,12,12,13,13,14,14,15,15,16,16,17,17,18,18,19,19,20,20,21,21,22,22,23,23,24,24,25,25,26,26,27,27,28,28,29,29,30,30],"right_children":[2,4,6,8,10,12,14,16,18,20,22,24,26,28,30,32,34,36,38,40,42,44,46,48,50,52,54,56,58,60,62,-1,-1,-1,-1,-1,-1,-1,-1,-1,-1,-1,-1,-1,-1,-1,-1,-1,-1,-1,-1,-1,-1,-1,-1,-1,-1,-1,-1,-1,-1,-1,-1],"split_conditions":[9E0,4.75329E1,8.149024E0,7.467371E0,7.420579E0,4.74852E1,4.75232E1,7.098376E0,7.8709297E0,4.77026E1,4.77095E1,1.4027E4,1.974E3,1.1E1,-1.22184E2,-1.22377E2,4.74349E1,4.74278E1,2E0,4.7567E1,7.20786E0,7.762171E0,4E0,4.7451E1,-1.22352E2,3.21E3,1E1,4.4093E4,4.73082E1,4.07E3,1.1E1,-1.7306017E-2,-6.290531E-2,-5.059073E-2,-3.579834E-2,-3.2081768E-2,-1.6846195E-2,-5.923513E-3,2.3033539E-2,-2.0863269E-2,2.9147111E-3,-2.945233E-2,-1.3509378E-2,1.8241396E-2,3.7552614E-2,2.761253E-3,8.083611E-2,-9.066223E-3,1.43451085E-2,4.7003683E-2,1.5205765E-2,6.416756E-2,9.501065E-2,3.4518752E-2,5.489502E-2,1.8971061E-2,4.4211805E-2,2.5827816E-2,7.619529E-2,9.485417E-2,1.4628845E-1,5.775549E-2,8.5071616E-2],"split_indices":[9,15,3,3,3,15,15,3,3,15,15,18,12,9,16,16,15,15,7,15,3,3,7,15,16,17,9,4,15,10,9,0,0,0,0,0,0,0,0,0,0,0,0,0,0,0,0,0,0,0,0,0,0,0,0,0,0,0,0,0,0,0,0],"split_type":[0,0,0,0,0,0,0,0,0,0,0,0,0,0,0,0,0,0,0,0,0,0,0,0,0,0,0,0,0,0,0,0,0,0,0,0,0,0,0,0,0,0,0,0,0,0,0,0,0,0,0,0,0,0,0,0,0,0,0,0,0,0,0],"sum_hessian":[1.6209E4,1.3305E4,2.904E3,5.583E3,7.722E3,1.934E3,9.7E2,2.932E3,2.651E3,3.5E3,4.222E3,3.61E2,1.573E3,1.41E2,8.29E2,1.077E3,1.855E3,2.177E3,4.74E2,2.432E3,1.068E3,3.063E3,1.159E3,2.01E2,1.6E2,3.6E2,1.213E3,1.13E2,2.8E1,3.58E2,4.71E2,5.4E1,1.023E3,1.059E3,7.96E2,1.206E3,9.71E2,4.05E2,6.9E1,5.11E2,1.921E3,5.68E2,5E2,1.981E3,1.082E3,1.146E3,1.3E1,1.78E2,2.3E1,1.7E1,1.43E2,3.02E2,5.8E1,8.69E2,3.44E2,6.8E1,4.5E1,5E0,2.3E1,2.91E2,6.7E1,2.92E2,1.79E2],"tree_param":{"num_deleted":"0","num_feature":"20","num_nodes":"63","size_leaf_vector":"1"}},{"base_weights":[9.288573E-5,-1.9874038E-1,2.4763629E-1,-3.87447E-1,-1.3853855E-2,-7.354381E-2,3.5876095E-1,-4.7652388E-1,-2.939286E-1,7.002311E-2,-1.321197E-1,-1.746745E-1,1.396639E-1,2.2152281E-1,5.9477895E-1,-5.244155E-1,-3.218764E-1,-3.6760578E-1,-2.3703773E-1,-6.520755E-2,1.4417411E-1,-2.397911E-1,-5.5063497E-2,-2.326904E-1,-2.0131776E-2,8.496334E-2,3.711561E-1,1.0375586E-1,2.9754695E-1,5.182103E-1,9.1007257E-1,-6.2269416E-2,-4.7587954E-2,-5.4864655E-3,-3.694583E-2,-4.272541E-2,-2.8597329E-2,2.9879464E-3,-2.6514852E-2,-1.9650301E-2,5.5799E-4,-2.5071895E-3,1.7987907E-2,-2.320349E-2,-8.1846915E-2,-4.810486E-6,-1.0811398E-2,-3.0185673E-2,-1.3300205E-2,-6.1279126E-3,2.1289615E-2,-1.4390794E-3,1.7841378E-2,3.3529256E-2,8.714573E-2,2.9862825E-2,3.9083823E-3,3.3863463E-2,1.2274283E-2,6.576729E-2,4.1234873E-2,1.1115068E-1,7.3787704E-2],"categories":[],"categories_nodes":[],"categories_segments":[],"categories_sizes":[],"default_left":[0,0,0,0,0,0,0,0,0,0,0,0,0,0,0,0,0,0,0,0,0,0,0,0,0,0,0,0,0,0,0,0,0,0,0,0,0,0,0,0,0,0,0,0,0,0,0,0,0,0,0,0,0,0,0,0,0,0,0,0,0,0,0],"id":3,"left_children":[1,3,5,7,9,11,13,15,17,19,21,23,25,27,29,31,33,35,37,39,41,43,45,47,49,51,53,55,57,59,61,-1,-1,-1,-1,-1,-1,-1,-1,-1,-1,-1,-1,-1,-1,-1,-1,-1,-1,-1,-1,-1,-1,-1,-1,-1,-1,-1,-1,-1,-1,-1,-1],"loss_changes":[7.979032E2,3.1364954E2,2.5775128E2,3.692157E1,4.50649E1,4.006474E1,1.7364423E2,1.6695374E1,9.021133E0,2.666246E1,1.56261635E1,1.1292393E1,7.5407925E0,3.0356064E1,4.713562E1,7.989258E0,6.853096E0,4.479248E0,9.229416E0,8.756111E0,1.0380207E1,3.337925E0,3.210447E0,6.2757416E0,3.321072E0,4.505641E0,1.7532616E0,1.6787853E1,1.4768326E1,2.3188354E1,1.2499298E1,0E0,0E0,0E0,0E0,0E0,0E0,0E0,0E0,0E0,0E0,0E0,0E0,0E0,0E0,0E0,0E0,0E0,0E0,0E0,0E0,0E0,0E0,0E0,0E0,0E0,0E0,0E0,0E0,0E0,0E0,0E0,0E0],"parents":[2147483647,0,0,1,1,2,2,3,3,4,4,5,5,6,6,7,7,8,8,9,9,10,10,11,11,12,12,13,13,14,14,15,15,16,16,17,17,18,18,19,19,20,20,21,21,22,22,23,23,24,24,25,25,26,26,27,27,28,28,29,29,30,30],"right_children":[2,4,6,8,10,12,14,16,18,20,22,24,26,28,30,32,34,36,38,40,42,44,46,48,50,52,54,56,58,60,62,-1,-1,-1,-1,-1,-1,-1,-1,-1,-1,-1,-1,-1,-1,-1,-1,-1,-1,-1,-1,-1,-1,-1,-1,-1,-1,-1,-1,-1,-1,-1,-1],"split_conditions":[8E0,4.75489E1,4.7512E1,7.3395376E0,4.76926E1,1.2746E4,7.9550743E0,4.75102E1,4.73992E1,7.192934E0,7.2584124E0,7.8709297E0,3.15E3,7.6108527E0,8.326758E0,7.0030656E0,-1.22378E2,1.82E3,-1.22363E2,4.76029E1,4.75732E1,-1.21863E2,4.7731E1,4.73837E1,1E0,4.739E1,4E0,1.959E3,4.77194E1,-1.2219E2,-1.22179E2,-6.2269416E-2,-4.7587954E-2,-5.4864655E-3,-3.694583E-2,-4.272541E-2,-2.8597329E-2,2.9879464E-3,-2.6514852E-2,-1.9650301E-2,5.5799E-4,-2.5071895E-3,1.7987907E-2,-2.320349E-2,-8.1846915E-2,-4.810486E-6,-1.0811398E-2,-3.0185673E-2,-1.3300205E-2,-6.1279126E-3,2.1289615E-2,-1.4390794E-3,1.7841378E-2,3.3529256E-2,8.714573E-2,2.9862825E-2,3.9083823E-3,3.3863463E-2,1.2274283E-2,6.576729E-2,4.1234873E-2,1.1115068E-1,7.3787704E-2],"split_indices":[9,15,15,3,15,18,3,15,15,3,3,3,10,3,3,3,16,17,16,15,15,16,15,15,7,15,7,12,15,16,16,0,0,0,0,0,0,0,0,0,0,0,0,0,0,0,0,0,0,0,0,0,0,0,0,0,0,0,0,0,0,0,0],"split_type":[0,0,0,0,0,0,0,0,0,0,0,0,0,0,0,0,0,0,0,0,0,0,0,0,0,0,0,0,0,0,0,0,0,0,0,0,0,0,0,0,0,0,0,0,0,0,0,0,0,0,0,0,0,0,0,0,0,0,0,0,0,0,0],"sum_hessian":[1.6209E4,8.989E3,7.22E3,4.448E3,4.541E3,1.856E3,5.364E3,2.276E3,2.172E3,2.657E3,1.884E3,1.259E3,5.97E2,3.393E3,1.971E3,1.736E3,5.4E2,9.44E2,1.228E3,9.41E2,1.716E3,7.85E2,1.099E3,9.15E2,3.44E2,4.84E2,1.13E2,1.332E3,2.061E3,1.588E3,3.83E2,5.7E2,1.166E3,8.2E1,4.58E2,5.43E2,4.01E2,1.17E2,1.111E3,3.29E2,6.12E2,2.99E2,1.417E3,7.76E2,9E0,5.4E2,5.59E2,5.39E2,3.76E2,2.93E2,5.1E1,2.35E2,2.49E2,1.07E2,6E0,3.31E2,1.001E3,1.668E3,3.93E2,6.83E2,9.05E2,1.74E2,2.09E2],"tree_param":{"num_deleted":"0","num_feature":"20","num_nodes":"63","size_leaf_vector":"1"}},{"base_weights":[9.0624926E-5,-1.7890713E-1,2.2293921E-1,-3.454376E-1,-8.8553615E-3,-6.613087E-2,3.2295415E-1,-3.908836E-1,-2.0167346E-1,7.364752E-2,-1.17366515E-1,-1.5049867E-1,1.4427859E-1,2.1976025E-1,5.821804E-1,-1.2700084E-1,-4.1262007E-1,-2.2404888E-1,-3.6882793E-3,-3.7222937E-2,1.4587161E-1,-1.9969721E-1,-3.49994E-2,-2.0246096E-1,2.596795E-3,7.7289686E-2,3.159528E-1,9.5767274E-2,2.8883553E-1,5.0805235E-1,8.464471E-1,-4.9113944E-2,-6.920175E-3,-5.246363E-2,-3.701332E-2,-2.7841482E-2,-1.1226698E-2,-5.3256243E-3,4.138161E-2,-3.0954972E-2,-7.8959734E-4,1.8674513E-2,1.8476691E-3,-2.9888554E-2,-1.630633E-2,-6.440453E-3,5.4722126E-3,-2.6012072E-2,-1.0387201E-2,-4.7472264E-3,1.9425267E-2,5.6579304E-3,5.5009224E-2,2.8629413E-2,8.029006E-2,2.5505995E-2,3.2211894E-3,4.59953E-2,2.466881E-2,6.25019E-2,3.7340593E-2,7.958625E-2,1.4131251E-1],"categories":[],"categories_nodes":[],"categories_segments":[],"categories_sizes":[],"default_left":[0,0,0,0,0,0,0,0,0,0,0,0,0,0,0,0,0,0,0,0,0,0,0,0,0,0,0,0,0,0,0,0,0,0,0,0,0,0,0,0,0,0,0,0,0,0,0,0,0,0,0,0,0,0,0,0,0,0,0,0,0,0,0],"id":4,"left_children":[1,3,5,7,9,11,13,15,17,19,21,23,25,27,29,31,33,35,37,39,41,43,45,47,49,51,53,55,57,59,61,-1,-1,-1,-1,-1,-1,-1,-1,-1,-1,-1,-1,-1,-1,-1,-1,-1,-1,-1,-1,-1,-1,-1,-1,-1,-1,-1,-1,-1,-1,-1,-1],"loss_changes":[6.46647E2,2.5458295E2,2.087901E2,2.9596313E1,3.9838238E1,3.298677E1,1.4338885E2,1.973645E1,4.8411674E0,2.0248428E1,1.3026751E1,1.0549112E1,6.0937214E0,3.2852814E1,2.9483215E1,5.5223875E0,1.497345E1,5.9364815E0,2.3398604E0,7.968099E0,7.9685936E0,3.4432068E0,2.5415437E0,5.60075E0,3.2430832E0,3.7289739E0,1.9220266E0,1.3912156E1,1.7664505E1,1.8586853E1,8.420868E0,0E0,0E0,0E0,0E0,0E0,0E0,0E0,0E0,0E0,0E0,0E0,0E0,0E0,0E0,0E0,0E0,0E0,0E0,0E0,0E0,0E0,0E0,0E0,0E0,0E0,0E0,0E0,0E0,0E0,0E0,0E0,0E0],"parents":[2147483647,0,0,1,1,2,2,3,3,4,4,5,5,6,6,7,7,8,8,9,9,10,10,11,11,12,12,13,13,14,14,15,15,16,16,17,17,18,18,19,19,20,20,21,21,22,22,23,23,24,24,25,25,26,26,27,27,28,28,29,29,30,30],"right_children":[2,4,6,8,10,12,14,16,18,20,22,24,26,28,30,32,34,36,38,40,42,44,46,48,50,52,54,56,58,60,62,-1,-1,-1,-1,-1,-1,-1,-1,-1,-1,-1,-1,-1,-1,-1,-1,-1,-1,-1,-1,-1,-1,-1,-1,-1,-1,-1,-1,-1,-1,-1,-1],"split_conditions":[8E0,4.75521E1,4.7512E1,1.84E3,4.76914E1,1.696E4,8.02617E0,-1.22374E2,1E0,7.2442274E0,7.3264656E0,7.893572E0,2.91E3,7.620705E0,8.354674E0,9.8024E4,7.056175E0,-1.22141E2,1E0,6.6970344E0,-1.22163E2,7E0,7.6916566E0,4.73942E1,1E0,1E0,4E0,1.962E3,1.955E3,-1.22141E2,1E0,-4.9113944E-2,-6.920175E-3,-5.246363E-2,-3.701332E-2,-2.7841482E-2,-1.1226698E-2,-5.3256243E-3,4.138161E-2,-3.0954972E-2,-7.8959734E-4,1.8674513E-2,1.8476691E-3,-2.9888554E-2,-1.630633E-2,-6.440453E-3,5.4722126E-3,-2.6012072E-2,-1.0387201E-2,-4.7472264E-3,1.9425267E-2,5.6579304E-3,5.5009224E-2,2.8629413E-2,8.029006E-2,2.5505995E-2,3.2211894E-3,4.59953E-2,2.466881E-2,6.25019E-2,3.7340593E-2,7.958625E-2,1.4131251E-1],"split_indices":[9,15,15,17,15,4,3,16,7,3,3,3,10,3,3,14,3,16,6,3,16,9,3,15,7,6,7,12,12,16,6,0,0,0,0,0,0,0,0,0,0,0,0,0,0,0,0,0,0,0,0,0,0,0,0,0,0,0,0,0,0,0,0],"split_type":[0,0,0,0,0,0,0,0,0,0,0,0,0,0,0,0,0,0,0,0,0,0,0,0,0,0,0,0,0,0,0,0,0,0,0,0,0,0,0,0,0,0,0,0,0,0,0,0,0,0,0,0,0,0,0,0,0,0,0,0,0,0,0],"sum_hessian":[1.6209E4,8.989E3,7.22E3,4.541E3,4.448E3,1.856E3,5.364E3,3.449E3,1.092E3,2.527E3,1.921E3,1.325E3,5.31E2,3.838E3,1.526E3,2.63E2,3.186E3,9.81E2,1.11E2,9.97E2,1.53E3,9.6E2,9.61E2,9.89E2,3.36E2,3.83E2,1.48E2,1.374E3,2.464E3,1.194E3,3.32E2,3.5E1,2.28E2,8.73E2,2.313E3,6.59E2,3.22E2,1E2,1.1E1,9.6E1,9.01E2,1.158E3,3.72E2,2.57E2,7.03E2,7.24E2,2.37E2,6.23E2,3.66E2,2.67E2,6.9E1,3.68E2,1.5E1,1.41E2,7E0,3.91E2,9.83E2,4.85E2,1.979E3,6.37E2,5.57E2,3.07E2,2.5E1],"tree_param":{"num_deleted":"0","num_feature":"20","num_nodes":"63","size_leaf_vector":"1"}},{"base_weights":[1.0383795E-4,-8.50212E-2,3.900087E-1,-2.663685E-1,4.839263E-2,2.8157836E-1,5.5909914E-1,-3.7057176E-1,-1.5097618E-1,-2.832159E-2,1.8070339E-1,5.4042125E-1,2.1194485E-1,4.9367878E-1,8.603106E-1,-4.2870793E-1,-3.0375415E-1,-1.7569043E-1,7.6630615E-2,-2.0282404E-1,3.819306E-3,1.5054694E-1,3.9257458E-1,4.661259E-1,7.129243E-1,2.6619697E-2,2.7428502E-1,4.4914383E-1,7.9491276E-1,7.55661E-1,1.2063034E0,-5.110065E-2,-3.6800068E-2,-3.2216355E-2,-3.5897053E-3,-2.3514478E-2,-8.542899E-3,2.8527102E-2,-2.0086551E-4,-1.7914178E-2,-4.8433106E-2,6.299294E-3,-1.0108744E-2,2.0075632E-2,4.8462874E-3,3.6131043E-2,1.02263205E-1,-4.2079375E-3,4.8007753E-2,7.409932E-2,3.124783E-2,-1.1681038E-3,2.4854666E-2,3.014945E-2,1.0313167E-2,7.603323E-2,4.1615646E-2,9.9741064E-2,6.389155E-2,2.4851184E-2,7.921688E-2,1.2199249E-1,3.0347819E-2],"categories":[],"categories_nodes":[],"categories_segments":[],"categories_sizes":[],"default_left":[0,0,0,0,0,0,0,0,0,0,0,0,0,0,0,0,0,0,0,0,0,0,0,0,0,0,0,0,0,0,0,0,0,0,0,0,0,0,0,0,0,0,0,0,0,0,0,0,0,0,0,0,0,0,0,0,0,0,0,0,0,0,0],"id":5,"left_children":[1,3,5,7,9,11,13,15,17,19,21,23,25,27,29,31,33,35,37,39,41,43,45,47,49,51,53,55,57,59,61,-1,-1,-1,-1,-1,-1,-1,-1,-1,-1,-1,-1,-1,-1,-1,-1,-1,-1,-1,-1,-1,-1,-1,-1,-1,-1,-1,-1,-1,-1,-1,-1],"loss_changes":[5.3805383E2,3.219414E2,5.31044E1,6.7760864E1,7.782606E1,3.1824234E1,2.1921173E1,1.1379639E1,1.507756E1,2.7225237E1,1.7920334E1,4.4737473E0,1.6144077E1,1.2172989E1,6.366272E0,7.7158203E0,6.8032E0,1.2945229E1,4.315701E0,4.946617E0,2.5457989E1,1.2624821E1,6.524887E0,1.899128E0,1.016098E0,3.0033908E0,4.840126E0,8.060074E0,3.121849E0,2.709961E0,1.8317413E-1,0E0,0E0,0E0,0E0,0E0,0E0,0E0,0E0,0E0,0E0,0E0,0E0,0E0,0E0,0E0,0E0,0E0,0E0,0E0,0E0,0E0,0E0,0E0,0E0,0E0,0E0,0E0,0E0,0E0,0E0,0E0,0E0],"parents":[2147483647,0,0,1,1,2,2,3,3,4,4,5,5,6,6,7,7,8,8,9,9,10,10,11,11,12,12,13,13,14,14,15,15,16,16,17,17,18,18,19,19,20,20,21,21,22,22,23,23,24,24,25,25,26,26,27,27,28,28,29,29,30,30],"right_children":[2,4,6,8,10,12,14,16,18,20,22,24,26,28,30,32,34,36,38,40,42,44,46,48,50,52,54,56,58,60,62,-1,-1,-1,-1,-1,-1,-1,-1,-1,-1,-1,-1,-1,-1,-1,-1,-1,-1,-1,-1,-1,-1,-1,-1,-1,-1,-1,-1,-1,-1,-1,-1],"split_conditions":[9E0,4.75345E1,1E1,7.467371E0,7.5908523E0,1.97E3,3E0,1.5E3,1E0,7E0,1E0,2.93E3,4.75065E1,8.465899E0,1E0,4.74278E1,1E0,-1.22163E2,-1.22353E2,-1.2204E2,4.76949E1,4.76962E1,1E0,4.73414E1,4.76782E1,9.6574E4,4.77338E1,1.97E3,-1.22186E2,4.73762E1,9.40654E9,-5.110065E-2,-3.6800068E-2,-3.2216355E-2,-3.5897053E-3,-2.3514478E-2,-8.542899E-3,2.8527102E-2,-2.0086551E-4,-1.7914178E-2,-4.8433106E-2,6.299294E-3,-1.0108744E-2,2.0075632E-2,4.8462874E-3,3.6131043E-2,1.02263205E-1,-4.2079375E-3,4.8007753E-2,7.409932E-2,3.124783E-2,-1.1681038E-3,2.4854666E-2,3.014945E-2,1.0313167E-2,7.603323E-2,4.1615646E-2,9.9741064E-2,6.389155E-2,2.4851184E-2,7.921688E-2,1.2199249E-1,3.0347819E-2],"split_indices":[9,15,9,3,3,12,7,17,7,9,7,17,15,3,6,15,7,16,16,16,15,15,6,15,15,4,15,12,16,15,0,0,0,0,0,0,0,0,0,0,0,0,0,0,0,0,0,0,0,0,0,0,0,0,0,0,0,0,0,0,0,0,0],"split_type":[0,0,0,0,0,0,0,0,0,0,0,0,0,0,0,0,0,0,0,0,0,0,0,0,0,0,0,0,0,0,0,0,0,0,0,0,0,0,0,0,0,0,0,0,0,0,0,0,0,0,0,0,0,0,0,0,0,0,0,0,0,0,0],"sum_hessian":[1.6209E4,1.3305E4,2.904E3,5.639E3,7.666E3,1.771E3,1.133E3,2.962E3,2.677E3,4.853E3,2.813E3,3.74E2,1.397E3,9.33E2,2E2,1.581E3,1.381E3,2.415E3,2.62E2,7.54E2,4.099E3,2.464E3,3.49E2,2.64E2,1.1E2,3.52E2,1.045E3,8.15E2,1.18E2,1.56E2,4.4E1,6.68E2,9.13E2,1.292E3,8.9E1,1.455E3,9.6E2,7.1E1,1.91E2,6.97E2,5.7E1,2.621E3,1.478E3,1.651E3,8.13E2,3.34E2,1.5E1,7E0,2.57E2,1.02E2,8E0,3.01E2,5.1E1,9.01E2,1.44E2,7.6E1,7.39E2,4.9E1,6.9E1,1.1E1,1.45E2,4.3E1,1E0],"tree_param":{"num_deleted":"0","num_feature":"20","num_nodes":"63","size_leaf_vector":"1"}},{"base_weights":[1.3766205E-4,-1.1689345E-1,2.3108733E-1,-2.8763255E-1,2.7530508E-3,-7.4258526E-3,3.1905702E-1,-3.4625056E-1,-1.8593028E-1,-8.138945E-2,7.9423286E-2,-8.7033935E-2,1.2667212E-1,2.372592E-1,5.2060425E-1,-4.320534E-1,-3.0594492E-1,-2.2242926E-1,-7.6693326E-2,-2.1649848E-1,-4.606787E-2,1.268628E-1,-5.6780964E-2,-9.6451215E-2,5.313058E-2,1.0889037E-1,5.468681E-1,2.7410457E-1,8.123031E-2,4.9398404E-1,1.1627095E0,-1.9475864E-2,-4.5571852E-2,-3.6179468E-2,-2.2307381E-2,-2.4228152E-2,-7.973068E-3,-1.0421784E-2,1.2709274E-2,-3.6018156E-2,-1.8304579E-2,4.944128E-3,-9.506115E-3,5.2668806E-2,1.1248168E-2,-1.3549688E-2,-2.4450298E-3,-1.8984137E-2,-5.44282E-3,5.846645E-3,2.2628251E-2,-1.00224024E-4,6.686727E-2,3.5188414E-2,1.9769913E-2,3.5928346E-3,1.7628858E-2,4.646223E-2,9.150464E-2,1.1771455E-1,2.6376177E-2],"categories":[],"categories_nodes":[],"categories_segments":[],"categories_sizes":[],"default_left":[0,0,0,0,0,0,0,0,0,0,0,0,0,0,0,0,0,0,0,0,0,0,0,0,0,0,0,0,0,0,0,0,0,0,0,0,0,0,0,0,0,0,0,0,0,0,0,0,0,0,0,0,0,0,0,0,0,0,0,0,0],"id":6,"left_children":[1,3,5,7,9,11,13,15,17,19,21,23,25,27,29,31,33,35,37,39,41,43,45,47,-1,49,51,53,55,57,59,-1,-1,-1,-1,-1,-1,-1,-1,-1,-1,-1,-1,-1,-1,-1,-1,-1,-1,-1,-1,-1,-1,-1,-1,-1,-1,-1,-1,-1,-1],"loss_changes":[4.3815567E2,2.1978928E2,1.14395874E2,2.6363312E1,4.0823368E1,1.570369E1,6.554071E1,9.589233E0,6.453903E0,1.4387945E1,2.1401102E1,5.4259453E0,4.0350094E0,1.6275986E1,1.906546E1,4.9428253E0,8.78717E0,3.4254723E0,2.301763E0,2.9381847E0,1.1202278E1,1.4062592E1,2.1751544E0,3.560995E0,0E0,3.1062784E0,1.4687991E0,1.3557251E1,2.3320012E0,1.32361145E1,2.734909E-1,0E0,0E0,0E0,0E0,0E0,0E0,0E0,0E0,0E0,0E0,0E0,0E0,0E0,0E0,0E0,0E0,0E0,0E0,0E0,0E0,0E0,0E0,0E0,0E0,0E0,0E0,0E0,0E0,0E0,0E0],"parents":[2147483647,0,0,1,1,2,2,3,3,4,4,5,5,6,6,7,7,8,8,9,9,10,10,11,11,12,12,13,13,14,14,15,15,16,16,17,17,18,18,19,19,20,20,21,21,22,22,23,23,25,25,26,26,27,27,28,28,29,29,30,30],"right_children":[2,4,6,8,10,12,14,16,18,20,22,24,26,28,30,32,34,36,38,40,42,44,46,48,-1,50,52,54,56,58,60,-1,-1,-1,-1,-1,-1,-1,-1,-1,-1,-1,-1,-1,-1,-1,-1,-1,-1,-1,-1,-1,-1,-1,-1,-1,-1,-1,-1,-1,-1],"split_conditions":[7.72312E0,4.75297E1,4.75162E1,1.76E3,1.62E3,1.2428E4,8.104704E0,7E0,1.16E4,7E0,4.77146E1,4E0,1E0,4.77179E1,1E0,-1.22368E2,4.74349E1,4.75024E1,2E0,6.672033E0,1.947E3,9.8005E4,7.377759E0,9.8033E4,5.313058E-2,2.91E3,2.5E0,-1.22186E2,1.4311E4,1.2E1,4.77528E1,-1.9475864E-2,-4.5571852E-2,-3.6179468E-2,-2.2307381E-2,-2.4228152E-2,-7.973068E-3,-1.0421784E-2,1.2709274E-2,-3.6018156E-2,-1.8304579E-2,4.944128E-3,-9.506115E-3,5.2668806E-2,1.1248168E-2,-1.3549688E-2,-2.4450298E-3,-1.8984137E-2,-5.44282E-3,5.846645E-3,2.2628251E-2,-1.00224024E-4,6.686727E-2,3.5188414E-2,1.9769913E-2,3.5928346E-3,1.7628858E-2,4.646223E-2,9.150464E-2,1.1771455E-1,2.6376177E-2],"split_indices":[3,15,15,17,17,18,3,9,18,9,15,7,6,15,6,16,15,15,7,3,12,14,3,14,0,10,2,16,18,9,15,0,0,0,0,0,0,0,0,0,0,0,0,0,0,0,0,0,0,0,0,0,0,0,0,0,0,0,0,0,0],"split_type":[0,0,0,0,0,0,0,0,0,0,0,0,0,0,0,0,0,0,0,0,0,0,0,0,0,0,0,0,0,0,0,0,0,0,0,0,0,0,0,0,0,0,0,0,0,0,0,0,0,0,0,0,0,0,0,0,0,0,0,0,0],"sum_hessian":[1.6209E4,1.0758E4,5.451E3,4.432E3,6.326E3,1.469E3,3.982E3,2.81E3,1.622E3,3.016E3,3.31E3,9.22E2,5.47E2,2.834E3,1.148E3,8.95E2,1.915E3,1.215E3,4.07E2,6.24E2,2.392E3,2.455E3,8.55E2,9.09E2,1.3E1,5.26E2,2.1E1,2.292E3,5.42E2,1.104E3,4.4E1,8.2E1,8.13E2,1.142E3,7.73E2,1.066E3,1.49E2,3.59E2,4.8E1,1.16E2,5.08E2,8.11E2,1.581E3,8.4E1,2.371E3,2.48E2,6.07E2,2.81E2,6.28E2,3.69E2,1.57E2,4E0,1.7E1,1.134E3,1.158E3,3.68E2,1.74E2,1.034E3,7E1,4.3E1,1E0],"tree_param":{"num_deleted":"0","num_feature":"20","num_nodes":"61","size_leaf_vector":"1"}},{"base_weights":[1.434908E-4,-1.3544613E-1,1.6894983E-1,-2.5667572E-1,-7.1082753E-3,1.1416993E-1,4.628926E-1,-3.2219994E-1,-1.9992547E-1,6.091542E-2,-9.370915E-2,-8.645764E-2,1.8024698E-1,6.176475E-1,3.6642104E-1,-3.6808226E-1,-2.0541377E-1,1.8509831E-2,-2.1290326E-1,3.7630561E-3,1.4913528E-1,-1.6919708E-1,-3.80987E-2,-1.5464966E-1,4.2398926E-2,3.0352086E-1,1.2954552E-1,1.1651068E-1,6.738873E-1,3.2640305E-1,6.1224025E-1,-3.7540395E-2,2.5843007E-3,-3.2294776E-2,-1.5231425E-2,-3.1201307E-2,8.277692E-3,-2.2783814E-2,-1.9611178E-3,-8.528095E-3,5.512697E-3,2.1062879E-2,1.4696791E-3,-1.6272463E-2,-6.7395724E-2,7.0895656E-4,-8.281293E-3,-2.1386549E-2,-9.415142E-3,-5.9268936E-3,1.0656147E-2,2.2078503E-2,4.6665296E-2,6.911312E-3,2.27943E-2,7.0657306E-3,5.688435E-2,5.853113E-2,8.5917704E-2,4.639705E-2,2.9176418E-2,5.2787986E-2,7.74818E-2],"categories":[],"categories_nodes":[],"categories_segments":[],"categories_sizes":[],"default_left":[0,0,0,0,0,0,0,0,0,0,0,0,0,0,0,0,0,0,0,0,0,0,0,0,0,0,0,0,0,0,0,0,0,0,0,0,0,0,0,0,0,0,0,0,0,0,0,0,0,0,0,0,0,0,0,0,0,0,0,0,0,0,0],"id":7,"left_children":[1,3,5,7,9,11,13,15,17,19,21,23,25,27,29,31,33,35,37,39,41,43,45,47,49,51,53,55,57,59,61,-1,-1,-1,-1,-1,-1,-1,-1,-1,-1,-1,-1,-1,-1,-1,-1,-1,-1,-1,-1,-1,-1,-1,-1,-1,-1,-1,-1,-1,-1,-1,-1],"loss_changes":[3.7104367E2,1.3986769E2,1.16220825E2,1.7126282E1,2.5737207E1,8.072346E1,1.670366E1,1.1412842E1,7.0342712E0,1.2337148E1,8.061951E0,1.3266125E1,2.8586441E1,1.2153275E1,6.696045E0,4.445587E0,3.7390957E0,2.9996715E0,6.7535095E0,6.8011436E0,7.94985E0,2.5529652E0,2.239366E0,3.5157452E0,3.4179854E0,1.7901787E1,1.9292194E1,8.9315146E-1,5.897873E0,2.7475662E0,9.213562E-1,0E0,0E0,0E0,0E0,0E0,0E0,0E0,0E0,0E0,0E0,0E0,0E0,0E0,0E0,0E0,0E0,0E0,0E0,0E0,0E0,0E0,0E0,0E0,0E0,0E0,0E0,0E0,0E0,0E0,0E0,0E0,0E0],"parents":[2147483647,0,0,1,1,2,2,3,3,4,4,5,5,6,6,7,7,8,8,9,9,10,10,11,11,12,12,13,13,14,14,15,15,16,16,17,17,18,18,19,19,20,20,21,21,22,22,23,23,24,24,25,25,26,26,27,27,28,28,29,29,30,30],"right_children":[2,4,6,8,10,12,14,16,18,20,22,24,26,28,30,32,34,36,38,40,42,44,46,48,50,52,54,56,58,60,62,-1,-1,-1,-1,-1,-1,-1,-1,-1,-1,-1,-1,-1,-1,-1,-1,-1,-1,-1,-1,-1,-1,-1,-1,-1,-1,-1,-1,-1,-1,-1,-1],"split_conditions":[8E0,4.75554E1,1E1,7.293018E0,4.76914E1,4.74787E1,-1.22193E2,4.75102E1,-1.22375E2,1.7E3,7.2654295E0,1.125E4,1.964E3,4.74413E1,8.465899E0,8.1892E4,6.8351846E0,9.8024E4,3.3042E4,4.76187E1,-1.22186E2,-1.21863E2,4.7731E1,2.12E3,4.73531E1,2.34E3,7.8555446E0,5.01E3,1.1E1,9.801E4,8.662159E0,-3.7540395E-2,2.5843007E-3,-3.2294776E-2,-1.5231425E-2,-3.1201307E-2,8.277692E-3,-2.2783814E-2,-1.9611178E-3,-8.528095E-3,5.512697E-3,2.1062879E-2,1.4696791E-3,-1.6272463E-2,-6.7395724E-2,7.0895656E-4,-8.281293E-3,-2.1386549E-2,-9.415142E-3,-5.9268936E-3,1.0656147E-2,2.2078503E-2,4.6665296E-2,6.911312E-3,2.27943E-2,7.0657306E-3,5.688435E-2,5.853113E-2,8.5917704E-2,4.639705E-2,2.9176418E-2,5.2787986E-2,7.74818E-2],"split_indices":[9,15,9,3,15,15,16,15,16,17,3,18,12,15,3,4,3,14,4,15,16,16,15,10,15,17,3,10,9,14,3,0,0,0,0,0,0,0,0,0,0,0,0,0,0,0,0,0,0,0,0,0,0,0,0,0,0,0,0,0,0,0,0],"split_type":[0,0,0,0,0,0,0,0,0,0,0,0,0,0,0,0,0,0,0,0,0,0,0,0,0,0,0,0,0,0,0,0,0,0,0,0,0,0,0,0,0,0,0,0,0,0,0,0,0,0,0,0,0,0,0,0,0,0,0,0,0,0,0],"sum_hessian":[1.6209E4,8.989E3,7.22E3,4.622E3,4.367E3,6.087E3,1.133E3,2.143E3,2.479E3,2.446E3,1.921E3,1.508E3,4.579E3,4.33E2,7E2,1.537E3,6.06E2,1.39E2,2.34E3,1.485E3,9.61E2,8.14E2,1.107E3,9.86E2,5.22E2,1.333E3,3.246E3,4.4E1,3.89E2,6.04E2,9.6E1,1.509E3,2.8E1,1.87E2,4.19E2,2.2E1,1.17E2,2.172E3,1.68E2,5.43E2,9.42E2,6.59E2,3.02E2,8.05E2,9E0,5.51E2,5.56E2,4.97E2,4.89E2,2.02E2,3.2E2,8.86E2,4.47E2,2.012E3,1.234E3,4.1E1,3E0,2.66E2,1.23E2,1.19E2,4.85E2,6.6E1,3E1],"tree_param":{"num_deleted":"0","num_feature":"20","num_nodes":"63","size_leaf_vector":"1"}},{"base_weights":[1.4670531E-4,-6.4107195E-2,2.9445383E-1,-1.9172372E-1,3.8205497E-2,2.4011524E-1,4.9029538E-1,-2.555566E-1,-7.923485E-2,-7.8001074E-2,9.288878E-2,4.367188E-1,1.9538991E-1,4.4785818E-1,8.461549E-1,-3.8410172E-1,-2.3427165E-1,-1.4221784E-1,-1.4632255E-2,-3.824212E-2,-1.6818947E-1,1.4644739E-1,6.9080708E-3,3.7091345E-1,5.472563E-1,3.7184034E-2,2.4078524E-1,7.289398E-1,4.1113093E-1,6.4180607E-1,1.0432191E0,-1.5575464E-2,-4.1927498E-2,-2.6255408E-2,-1.3058488E-2,-1.638592E-2,5.9408504E-3,-8.599958E-3,5.7984E-3,-2.474652E-2,-1.7504154E-3,-1.6171984E-2,-6.133011E-2,1.8987147E-2,4.879452E-3,-2.6927448E-3,9.912591E-3,2.4689747E-2,4.1372675E-2,5.7912845E-2,3.2825034E-2,-2.2290058E-3,1.2133807E-2,2.334517E-2,8.417753E-2,1.9921765E-2,7.609343E-2,3.8208585E-2,7.122844E-2,6.7037486E-2,1.1361483E-2,7.903258E-2,1.19600706E-1],"categories":[],"categories_nodes":[],"categories_segments":[],"categories_sizes":[],"default_left":[0,0,0,0,0,0,0,0,0,0,0,0,0,0,0,0,0,0,0,0,0,0,0,0,0,0,0,0,0,0,0,0,0,0,0,0,0,0,0,0,0,0,0,0,0,0,0,0,0,0,0,0,0,0,0,0,0,0,0,0,0,0,0],"id":8,"left_children":[1,3,5,7,9,11,13,15,17,19,21,23,25,27,29,31,33,35,37,39,41,43,45,47,49,51,53,55,57,59,61,-1,-1,-1,-1,-1,-1,-1,-1,-1,-1,-1,-1,-1,-1,-1,-1,-1,-1,-1,-1,-1,-1,-1,-1,-1,-1,-1,-1,-1,-1,-1,-1],"loss_changes":[3.0655615E2,1.7374098E2,3.0796555E1,4.2495407E1,4.6942005E1,1.9927902E1,9.135117E0,1.0244202E1,8.725635E0,8.47039E0,2.3129944E1,2.8593445E0,1.3320473E1,5.5330048E0,1.988266E0,4.2316666E0,9.475861E0,4.748461E0,5.4983597E0,7.120078E0,1.9828415E0,1.3115044E1,6.021609E0,1.3155022E0,8.9183426E-1,2.0797734E0,6.1589355E0,9.330902E-1,4.1188583E0,4.5197582E-1,2.91214E-1,0E0,0E0,0E0,0E0,0E0,0E0,0E0,0E0,0E0,0E0,0E0,0E0,0E0,0E0,0E0,0E0,0E0,0E0,0E0,0E0,0E0,0E0,0E0,0E0,0E0,0E0,0E0,0E0,0E0,0E0,0E0,0E0],"parents":[2147483647,0,0,1,1,2,2,3,3,4,4,5,5,6,6,7,7,8,8,9,9,10,10,11,11,12,12,13,13,14,14,15,15,16,16,17,17,18,18,19,19,20,20,21,21,22,22,23,23,24,24,25,25,26,26,27,27,28,28,29,29,30,30],"right_children":[2,4,6,8,10,12,14,16,18,20,22,24,26,28,30,32,34,36,38,40,42,44,46,48,50,52,54,56,58,60,62,-1,-1,-1,-1,-1,-1,-1,-1,-1,-1,-1,-1,-1,-1,-1,-1,-1,-1,-1,-1,-1,-1,-1,-1,-1,-1,-1,-1,-1,-1,-1,-1],"split_conditions":[9E0,4.75433E1,8.25062E0,7.570443E0,7.286192E0,1.971E3,8.662159E0,6.9077554E0,4.74278E1,4.77042E1,4.76892E1,2.86E3,4.75065E1,1.955E3,1.2E1,-1.22371E2,4.75001E1,4.2646E4,8E0,6.6970344E0,-1.21878E2,-1.22147E2,2.16E3,1.78E3,-1.2219E2,1.9767E4,1E0,2E3,4E0,9.8115E4,5E0,-1.5575464E-2,-4.1927498E-2,-2.6255408E-2,-1.3058488E-2,-1.638592E-2,5.9408504E-3,-8.599958E-3,5.7984E-3,-2.474652E-2,-1.7504154E-3,-1.6171984E-2,-6.133011E-2,1.8987147E-2,4.879452E-3,-2.6927448E-3,9.912591E-3,2.4689747E-2,4.1372675E-2,5.7912845E-2,3.2825034E-2,-2.2290058E-3,1.2133807E-2,2.334517E-2,8.417753E-2,1.9921765E-2,7.609343E-2,3.8208585E-2,7.122844E-2,6.7037486E-2,1.1361483E-2,7.903258E-2,1.19600706E-1],"split_indices":[9,15,3,3,3,12,3,3,15,15,15,17,15,12,9,16,15,4,9,3,16,16,17,10,16,4,6,17,7,14,2,0,0,0,0,0,0,0,0,0,0,0,0,0,0,0,0,0,0,0,0,0,0,0,0,0,0,0,0,0,0,0,0],"split_type":[0,0,0,0,0,0,0,0,0,0,0,0,0,0,0,0,0,0,0,0,0,0,0,0,0,0,0,0,0,0,0,0,0,0,0,0,0,0,0,0,0,0,0,0,0,0,0,0,0,0,0,0,0,0,0,0,0,0,0,0,0,0,0],"sum_hessian":[1.6209E4,1.3305E4,2.904E3,5.92E3,7.385E3,2.275E3,6.29E2,3.776E3,2.144E3,2.363E3,5.022E3,4.2E2,1.855E3,5.64E2,6.5E1,5.34E2,3.242E3,1.085E3,1.059E3,1.641E3,7.22E2,3.094E3,1.928E3,2.66E2,1.54E2,4.14E2,1.441E3,6.3E1,5.01E2,3.4E1,3.1E1,7.2E1,4.62E2,2.546E3,6.96E2,9.8E2,1.05E2,5.34E2,5.25E2,1.47E2,1.494E3,7.13E2,9E0,2.141E3,9.53E2,1.411E3,5.17E2,7E1,1.96E2,1.33E2,2.1E1,2.43E2,1.71E2,1.425E3,1.6E1,4E0,5.9E1,4.59E2,4.2E1,3.2E1,2E0,1.4E1,1.7E1],"tree_param":{"num_deleted":"0","num_feature":"20","num_nodes":"63","size_leaf_vector":"1"}},{"base_weights":[1.674247E-4,-1.1162669E-1,1.3934883E-1,-2.1010305E-1,-7.375824E-3,6.330043E-2,2.889816E-1,-2.3841125E-1,-1.07435E-1,3.9326526E-2,-9.1381475E-2,-9.5468506E-2,1.1819822E-1,2.4900848E-1,5.207327E-1,-3.03121E-2,-2.5257415E-1,-1.598128E-1,-5.2266818E-2,-6.65965E-2,7.52721E-2,-1.5762895E-1,-4.431392E-2,-1.2988013E-1,5.0930936E-2,2.6608807E-1,8.937463E-2,8.678765E-2,2.9744798E-1,6.956171E-1,4.18734E-1,-3.259508E-2,1.3527664E-3,-3.0184424E-2,-2.0182874E-2,-1.9038916E-2,-6.0257493E-3,1.5059101E-2,-7.468806E-3,-4.724217E-3,-3.905682E-2,1.107892E-2,-3.265341E-3,-1.5111505E-2,-5.58104E-2,-5.481146E-3,1.5049832E-2,-2.0222543E-2,-9.296488E-3,2.2495566E-2,1.299295E-3,1.6291918E-2,3.3054568E-2,5.0926935E-2,7.954209E-3,6.0141925E-3,2.2300294E-2,3.98234E-2,2.101606E-2,3.579203E-2,7.687002E-2,3.731046E-2,5.778068E-2],"categories":[],"categories_nodes":[],"categories_segments":[],"categories_sizes":[],"default_left":[0,0,0,0,0,0,0,0,0,0,0,0,0,0,0,0,0,0,0,0,0,0,0,0,0,0,0,0,0,0,0,0,0,0,0,0,0,0,0,0,0,0,0,0,0,0,0,0,0,0,0,0,0,0,0,0,0,0,0,0,0,0,0],"id":9,"left_children":[1,3,5,7,9,11,13,15,17,19,21,23,25,27,29,31,33,35,37,39,41,43,45,47,49,51,53,55,57,59,61,-1,-1,-1,-1,-1,-1,-1,-1,-1,-1,-1,-1,-1,-1,-1,-1,-1,-1,-1,-1,-1,-1,-1,-1,-1,-1,-1,-1,-1,-1,-1,-1],"loss_changes":[2.522377E2,9.229199E1,8.2151855E1,1.3410431E1,1.7140398E1,4.1752518E1,2.240918E1,1.0670364E1,2.8841248E0,1.0696371E1,4.860381E0,6.2082005E0,1.5147228E1,1.6295044E1,6.076889E0,3.0112984E0,8.419861E0,1.5501194E0,2.2353783E0,4.4459705E0,8.0418415E0,1.6060677E0,1.8774233E0,2.6438332E0,1.5485817E0,3.8031578E0,1.2262823E1,1.7251449E0,1.3983276E1,2.933258E0,1.4393349E0,0E0,0E0,0E0,0E0,0E0,0E0,0E0,0E0,0E0,0E0,0E0,0E0,0E0,0E0,0E0,0E0,0E0,0E0,0E0,0E0,0E0,0E0,0E0,0E0,0E0,0E0,0E0,0E0,0E0,0E0,0E0,0E0],"parents":[2147483647,0,0,1,1,2,2,3,3,4,4,5,5,6,6,7,7,8,8,9,9,10,10,11,11,12,12,13,13,14,14,15,15,16,16,17,17,18,18,19,19,20,20,21,21,22,22,23,23,24,24,25,25,26,26,27,27,28,28,29,29,30,30],"right_children":[2,4,6,8,10,12,14,16,18,20,22,24,26,28,30,32,34,36,38,40,42,44,46,48,50,52,54,56,58,60,62,-1,-1,-1,-1,-1,-1,-1,-1,-1,-1,-1,-1,-1,-1,-1,-1,-1,-1,-1,-1,-1,-1,-1,-1,-1,-1,-1,-1,-1,-1,-1,-1],"split_conditions":[8E0,4.75554E1,7.9550743E0,1.87E3,4.77026E1,4.74787E1,1.1E1,-1.22376E2,4.74379E1,7.098376E0,7.2723985E0,1.6115E4,1.95E3,4.7525E1,-1.22188E2,9.8024E4,1.75E0,-1.22051E2,-1.22363E2,-1.22076E2,-1.22165E2,-1.21878E2,2.3954E4,4.73344E1,-1.22323E2,1.78E3,9.8005E4,8.1892E4,-1.22186E2,4.75489E1,1.2E1,-3.259508E-2,1.3527664E-3,-3.0184424E-2,-2.0182874E-2,-1.9038916E-2,-6.0257493E-3,1.5059101E-2,-7.468806E-3,-4.724217E-3,-3.905682E-2,1.107892E-2,-3.265341E-3,-1.5111505E-2,-5.58104E-2,-5.481146E-3,1.5049832E-2,-2.0222543E-2,-9.296488E-3,2.2495566E-2,1.299295E-3,1.6291918E-2,3.3054568E-2,5.0926935E-2,7.954209E-3,6.0141925E-3,2.2300294E-2,3.98234E-2,2.101606E-2,3.579203E-2,7.687002E-2,3.731046E-2,5.778068E-2],"split_indices":[9,15,3,17,15,15,9,16,15,3,3,18,12,15,16,14,2,16,16,16,16,16,4,15,16,17,14,4,16,15,9,0,0,0,0,0,0,0,0,0,0,0,0,0,0,0,0,0,0,0,0,0,0,0,0,0,0,0,0,0,0,0,0],"split_type":[0,0,0,0,0,0,0,0,0,0,0,0,0,0,0,0,0,0,0,0,0,0,0,0,0,0,0,0,0,0,0,0,0,0,0,0,0,0,0,0,0,0,0,0,0,0,0,0,0,0,0,0,0,0,0,0,0,0,0,0,0,0,0],"sum_hessian":[1.6209E4,8.989E3,7.22E3,4.622E3,4.367E3,4.788E3,2.432E3,3.622E3,1E3,2.807E3,1.56E3,1.23E3,3.558E3,2.076E3,3.56E2,2.31E2,3.391E3,5.12E2,4.88E2,7.11E2,2.096E3,6.47E2,9.13E2,9.96E2,2.34E2,5.79E2,2.979E3,4.78E2,1.598E3,1.29E2,2.27E2,2.9E1,2.02E2,1.718E3,1.673E3,3.91E2,1.21E2,4.8E1,4.4E2,6.72E2,3.9E1,1.577E3,5.19E2,6.38E2,9E0,8.67E2,4.6E1,3.35E2,6.61E2,4.1E1,1.93E2,2.24E2,3.55E2,6.7E1,2.912E3,4.01E2,7.7E1,7.4E2,8.58E2,2.4E1,1.05E2,1.79E2,4.8E1],"tree_param":{"num_deleted":"0","num_feature":"20","num_nodes":"63","size_leaf_vector":"1"}},{"base_weights":[1.6320404E-4,-6.924211E-2,1.8652724E-1,-1.9015765E-1,5.734358E-3,1.3078874E-1,3.5397896E-1,-2.6407492E-1,-1.3695821E-1,-4.001939E-2,9.757911E-2,1.8030806E-2,1.9381395E-1,3.221963E-1,6.861453E-1,-3.1968233E-1,-2.1260285E-1,-1.5336922E-1,2.56833E-2,-1.5825033E-1,-1.4215686E-2,4.340186E-1,8.5321546E-2,8.386532E-3,4.651896E-1,2.4800672E-1,7.5550504E-2,6.321575E-1,2.9649207E-1,7.349993E-1,3.214512E-1,-3.8840733E-2,-2.7836878E-2,-2.243205E-2,2.0808622E-3,-1.6564852E-2,4.0737335E-3,-2.815239E-2,3.6032125E-3,-2.6341472E-2,-1.3550545E-2,6.3555203E-3,-5.630363E-3,5.565917E-2,3.0135212E-2,1.1940638E-2,-9.90104E-4,-5.537394E-3,6.2402342E-3,1.752651E-2,5.6820106E-2,3.1310197E-2,1.4099416E-2,6.7017335E-3,7.700938E-2,5.1454265E-2,8.154065E-2,2.4775501E-2,4.0091474E-2,5.764484E-2,8.62432E-2,2.155451E-2,4.4779193E-2],"categories":[],"categories_nodes":[],"categories_segments":[],"categories_sizes":[],"default_left":[0,0,0,0,0,0,0,0,0,0,0,0,0,0,0,0,0,0,0,0,0,0,0,0,0,0,0,0,0,0,0,0,0,0,0,0,0,0,0,0,0,0,0,0,0,0,0,0,0,0,0,0,0,0,0,0,0,0,0,0,0,0,0],"id":10,"left_children":[1,3,5,7,9,11,13,15,17,19,21,23,25,27,29,31,33,35,37,39,41,43,45,47,49,51,53,55,57,59,61,-1,-1,-1,-1,-1,-1,-1,-1,-1,-1,-1,-1,-1,-1,-1,-1,-1,-1,-1,-1,-1,-1,-1,-1,-1,-1,-1,-1,-1,-1,-1,-1],"loss_changes":[2.0968369E2,1.0708655E2,4.1011795E1,1.7742035E1,3.0646646E1,2.3462467E1,1.1370651E1,5.3444977E0,7.0263634E0,1.4849028E1,9.96349E0,5.1064367E0,1.35555725E1,7.81176E0,1.4563217E0,2.467102E0,2.6986732E0,5.7032967E0,7.795185E-1,2.050087E0,1.3086625E1,1.2144833E0,7.5992374E0,4.002025E0,6.4705276E-1,1.0070503E1,3.9014733E0,1.2184525E0,4.628586E0,1.1798325E0,7.742405E-2,0E0,0E0,0E0,0E0,0E0,0E0,0E0,0E0,0E0,0E0,0E0,0E0,0E0,0E0,0E0,0E0,0E0,0E0,0E0,0E0,0E0,0E0,0E0,0E0,0E0,0E0,0E0,0E0,0E0,0E0,0E0,0E0],"parents":[2147483647,0,0,1,1,2,2,3,3,4,4,5,5,6,6,7,7,8,8,9,9,10,10,11,11,12,12,13,13,14,14,15,15,16,16,17,17,18,18,19,19,20,20,21,21,22,22,23,23,24,24,25,25,26,26,27,27,28,28,29,29,30,30],"right_children":[2,4,6,8,10,12,14,16,18,20,22,24,26,28,30,32,34,36,38,40,42,44,46,48,50,52,54,56,58,60,62,-1,-1,-1,-1,-1,-1,-1,-1,-1,-1,-1,-1,-1,-1,-1,-1,-1,-1,-1,-1,-1,-1,-1,-1,-1,-1,-1,-1,-1,-1,-1,-1],"split_conditions":[7.799753E0,4.75186E1,1E1,1.57E3,1.88E3,4.75433E1,4E0,1.25E0,3.6585E4,7E0,9.8005E4,1E0,4.76892E1,1.951E3,-1.22072E2,4.74087E1,2.1781E4,2E0,3E0,6.672033E0,1.948E3,-1.22202E2,4.77146E1,4.74087E1,4.73813E1,-1.22145E2,1E0,1.0874E4,1.1E1,-1.22256E2,4E0,-3.8840733E-2,-2.7836878E-2,-2.243205E-2,2.0808622E-3,-1.6564852E-2,4.0737335E-3,-2.815239E-2,3.6032125E-3,-2.6341472E-2,-1.3550545E-2,6.3555203E-3,-5.630363E-3,5.565917E-2,3.0135212E-2,1.1940638E-2,-9.90104E-4,-5.537394E-3,6.2402342E-3,1.752651E-2,5.6820106E-2,3.1310197E-2,1.4099416E-2,6.7017335E-3,7.700938E-2,5.1454265E-2,8.154065E-2,2.4775501E-2,4.0091474E-2,5.764484E-2,8.62432E-2,2.155451E-2,4.4779193E-2],"split_indices":[3,15,9,17,17,15,7,2,4,9,14,6,15,12,16,15,4,7,8,3,12,16,15,15,15,16,6,4,9,16,2,0,0,0,0,0,0,0,0,0,0,0,0,0,0,0,0,0,0,0,0,0,0,0,0,0,0,0,0,0,0,0,0],"split_type":[0,0,0,0,0,0,0,0,0,0,0,0,0,0,0,0,0,0,0,0,0,0,0,0,0,0,0,0,0,0,0,0,0,0,0,0,0,0,0,0,0,0,0,0,0,0,0,0,0,0,0,0,0,0,0,0,0,0,0,0,0,0,0],"sum_hessian":[1.6209E4,1.1811E4,4.398E3,4.52E3,7.291E3,3.301E3,1.097E3,1.89E3,2.63E3,4.867E3,2.424E3,1.184E3,2.117E3,1.003E3,9.4E1,9.06E2,9.84E2,2.389E3,2.41E2,8.71E2,3.996E3,8.4E1,2.34E3,1.16E3,2.4E1,1.451E3,6.66E2,7.5E1,9.28E2,8.2E1,1.2E1,3.37E2,5.69E2,9.37E2,4.7E1,2.247E3,1.42E2,7E0,2.34E2,1.53E2,7.18E2,1.403E3,2.593E3,4.2E1,4.2E1,1.723E3,6.17E2,5.32E2,6.28E2,7E0,1.7E1,9.01E2,5.5E2,6.59E2,7E0,4.8E1,2.7E1,6.35E2,2.93E2,3.9E1,4.3E1,8E0,4E0],"tree_param":{"num_deleted":"0","num_feature":"20","num_nodes":"63","size_leaf_vector":"1"}},{"base_weights":[1.8055283E-4,-4.8391335E-2,2.2265813E-1,-1.3716312E-1,3.2764174E-2,1.7128159E-1,3.4875488E-1,-1.8539557E-1,-4.8962023E-2,-4.9725913E-2,7.918414E-2,3.223897E-1,1.2852386E-1,3.2363477E-1,6.4827925E-1,-9.565617E-3,-1.9909589E-1,-1.09585926E-1,6.0006115E-3,-4.2249453E-3,-1.1918983E-1,1.1786569E-1,-1.200768E-2,2.7854526E-1,4.7723883E-1,5.371528E-3,1.577247E-1,4.0029332E-1,2.5223413E-1,4.8045045E-1,8.114373E-1,-2.5821855E-2,2.998607E-3,-2.2811918E-2,-1.2652812E-2,-1.4689907E-2,-4.4769864E-3,1.5394061E-2,-2.008642E-3,3.701752E-2,-1.4375306E-3,-2.4964366E-2,-1.0311721E-2,9.785592E-3,2.7170738E-2,-1.5927869E-3,6.358342E-2,-3.458965E-4,2.9440781E-2,5.045491E-2,1.8372241E-2,-2.1874085E-3,1.7974531E-2,3.0614197E-2,1.3273655E-2,2.2802312E-2,4.5111984E-2,2.4328846E-2,7.2610475E-2,7.715517E-2,4.0365532E-2,5.664121E-2,9.569326E-2],"categories":[],"categories_nodes":[],"categories_segments":[],"categories_sizes":[],"default_left":[0,0,0,0,0,0,0,0,0,0,0,0,0,0,0,0,0,0,0,0,0,0,0,0,0,0,0,0,0,0,0,0,0,0,0,0,0,0,0,0,0,0,0,0,0,0,0,0,0,0,0,0,0,0,0,0,0,0,0,0,0,0,0],"id":11,"left_children":[1,3,5,7,9,11,13,15,17,19,21,23,25,27,29,31,33,35,37,39,41,43,45,47,49,51,53,55,57,59,61,-1,-1,-1,-1,-1,-1,-1,-1,-1,-1,-1,-1,-1,-1,-1,-1,-1,-1,-1,-1,-1,-1,-1,-1,-1,-1,-1,-1,-1,-1,-1,-1],"loss_changes":[1.7517854E2,9.586517E1,1.876007E1,2.7026077E1,2.6624447E1,1.33070755E1,6.1104126E0,9.893967E0,7.491106E0,7.9138274E0,1.5695E1,2.9561844E0,5.79615E0,4.151924E0,1.3626328E0,2.9384665E0,7.997696E0,2.5787907E0,4.557084E0,5.7589703E0,2.052122E0,9.5901375E0,3.3777182E0,1.5979843E0,7.008877E-1,1.4767171E0,4.7917595E0,3.1630821E0,1.540184E0,4.4863415E-1,5.6313515E-1,0E0,0E0,0E0,0E0,0E0,0E0,0E0,0E0,0E0,0E0,0E0,0E0,0E0,0E0,0E0,0E0,0E0,0E0,0E0,0E0,0E0,0E0,0E0,0E0,0E0,0E0,0E0,0E0,0E0,0E0,0E0,0E0],"parents":[2147483647,0,0,1,1,2,2,3,3,4,4,5,5,6,6,7,7,8,8,9,9,10,10,11,11,12,12,13,13,14,14,15,15,16,16,17,17,18,18,19,19,20,20,21,21,22,22,23,23,24,24,25,25,26,26,27,27,28,28,29,29,30,30],"right_children":[2,4,6,8,10,12,14,16,18,20,22,24,26,28,30,32,34,36,38,40,42,44,46,48,50,52,54,56,58,60,62,-1,-1,-1,-1,-1,-1,-1,-1,-1,-1,-1,-1,-1,-1,-1,-1,-1,-1,-1,-1,-1,-1,-1,-1,-1,-1,-1,-1,-1,-1,-1,-1],"split_conditions":[9E0,4.75554E1,3.25E0,1.89E3,7.333023E0,1.976E3,8.662159E0,-1.22376E2,4.74136E1,4.76962E1,4.77112E1,3.21E3,4.74561E1,-1.22193E2,1.2E1,9.8024E4,-1.22169E2,-1.22158E2,-1.22337E2,9.8005E4,9.8029E4,1E0,1E0,4.73942E1,9.8119E4,8.712E4,9.801E4,4.75717E1,1E0,1.951E3,5E0,-2.5821855E-2,2.998607E-3,-2.2811918E-2,-1.2652812E-2,-1.4689907E-2,-4.4769864E-3,1.5394061E-2,-2.008642E-3,3.701752E-2,-1.4375306E-3,-2.4964366E-2,-1.0311721E-2,9.785592E-3,2.7170738E-2,-1.5927869E-3,6.358342E-2,-3.458965E-4,2.9440781E-2,5.045491E-2,1.8372241E-2,-2.1874085E-3,1.7974531E-2,3.0614197E-2,1.3273655E-2,2.2802312E-2,4.5111984E-2,2.4328846E-2,7.2610475E-2,7.715517E-2,4.0365532E-2,5.664121E-2,9.569326E-2],"split_indices":[9,15,2,17,3,12,3,16,15,15,15,17,15,16,9,14,16,16,16,14,14,7,6,15,14,18,14,15,6,12,2,0,0,0,0,0,0,0,0,0,0,0,0,0,0,0,0,0,0,0,0,0,0,0,0,0,0,0,0,0,0,0,0],"split_type":[0,0,0,0,0,0,0,0,0,0,0,0,0,0,0,0,0,0,0,0,0,0,0,0,0,0,0,0,0,0,0,0,0,0,0,0,0,0,0,0,0,0,0,0,0,0,0,0,0,0,0,0,0,0,0,0,0,0,0,0,0,0,0],"sum_hessian":[1.6209E4,1.3305E4,2.904E3,6.354E3,6.951E3,2.065E3,8.39E2,4.107E3,2.247E3,2.503E3,4.448E3,4.54E2,1.611E3,7.76E2,6.3E1,2.97E2,3.81E3,1.068E3,1.179E3,1.513E3,9.9E2,3.123E3,1.325E3,3.56E2,9.8E1,3.09E2,1.302E3,3.72E2,4.04E2,3.3E1,3E1,4E1,2.57E2,2.72E3,1.09E3,6.77E2,3.91E2,1.76E2,1.003E3,3.9E1,1.474E3,1.07E2,8.83E2,2.765E3,3.58E2,1.318E3,7E0,1.9E1,3.37E2,8.9E1,9E0,2.68E2,4.1E1,1.86E2,1.116E3,8.6E1,2.86E2,3.98E2,6E0,5E0,2.8E1,1.3E1,1.7E1],"tree_param":{"num_deleted":"0","num_feature":"20","num_nodes":"63","size_leaf_vector":"1"}},{"base_weights":[2.012033E-4,-7.280815E-2,1.2337193E-1,-1.7148638E-1,-1.0789123E-2,-9.952115E-3,1.7318857E-1,-2.4883953E-1,-1.3870117E-1,-1.01275735E-1,1.770073E-2,-5.151333E-2,9.379524E-2,1.3271806E-1,3.119449E-1,-2.5973144E-1,5.689002E-2,-1.5074462E-1,2.322779E-2,-1.9811292E-1,-7.744511E-2,6.565102E-3,1.9103669E-1,-7.1235016E-2,8.2438976E-2,2.6974618E-1,6.934355E-2,4.6967643E-1,1.2258137E-1,4.3947637E-1,2.2632818E-1,-3.006188E-2,-1.9511523E-2,-3.425724E-3,2.8001731E-2,-2.2212675E-2,-1.3119893E-2,-5.2311155E-3,8.631541E-3,-4.747081E-2,-1.8264303E-2,-6.1533893E-3,-2.3188801E-2,-2.6045633E-3,5.9295944E-3,1.1876128E-2,2.99676E-2,-1.4462384E-2,-4.5124646E-3,2.151737E-2,2.2239257E-3,1.8904941E-2,5.2833147E-2,2.1558963E-3,1.6793868E-2,6.1469745E-2,3.4734428E-2,1.1760623E-2,7.453083E-2,3.670212E-2,6.0171288E-2,2.1488508E-2,7.2209686E-2],"categories":[],"categories_nodes":[],"categories_segments":[],"categories_sizes":[],"default_left":[0,0,0,0,0,0,0,0,0,0,0,0,0,0,0,0,0,0,0,0,0,0,0,0,0,0,0,0,0,0,0,0,0,0,0,0,0,0,0,0,0,0,0,0,0,0,0,0,0,0,0,0,0,0,0,0,0,0,0,0,0,0,0],"id":12,"left_children":[1,3,5,7,9,11,13,15,17,19,21,23,25,27,29,31,33,35,37,39,41,43,45,47,49,51,53,55,57,59,61,-1,-1,-1,-1,-1,-1,-1,-1,-1,-1,-1,-1,-1,-1,-1,-1,-1,-1,-1,-1,-1,-1,-1,-1,-1,-1,-1,-1,-1,-1,-1,-1],"loss_changes":[1.4577927E2,6.2286777E1,4.007145E1,9.92704E0,1.6116562E1,7.084916E0,2.462204E1,3.9041977E0,5.387951E0,3.439271E0,9.176869E0,3.1046634E0,2.0033746E0,1.1562435E1,1.07211E1,2.9215012E0,8.434278E-1,3.5565567E0,9.1950506E-1,1.1755724E0,2.9419527E0,7.6863985E0,2.2179193E0,1.9537563E0,1.2017941E0,1.0895381E0,1.9468689E0,1.54282E0,1.014864E1,4.4458466E0,3.2203407E0,0E0,0E0,0E0,0E0,0E0,0E0,0E0,0E0,0E0,0E0,0E0,0E0,0E0,0E0,0E0,0E0,0E0,0E0,0E0,0E0,0E0,0E0,0E0,0E0,0E0,0E0,0E0,0E0,0E0,0E0,0E0,0E0],"parents":[2147483647,0,0,1,1,2,2,3,3,4,4,5,5,6,6,7,7,8,8,9,9,10,10,11,11,12,12,13,13,14,14,15,15,16,16,17,17,18,18,19,19,20,20,21,21,22,22,23,23,24,24,25,25,26,26,27,27,28,28,29,29,30,30],"right_children":[2,4,6,8,10,12,14,16,18,20,22,24,26,28,30,32,34,36,38,40,42,44,46,48,50,52,54,56,58,60,62,-1,-1,-1,-1,-1,-1,-1,-1,-1,-1,-1,-1,-1,-1,-1,-1,-1,-1,-1,-1,-1,-1,-1,-1,-1,-1,-1,-1,-1,-1,-1,-1],"split_conditions":[7.6824822E0,4.75186E1,4.75102E1,7.17012E0,7.098376E0,1.9767E4,1E1,1E0,3.5E4,8E2,1E0,1E0,-1.22346E2,9.8005E4,-1.22184E2,-1.22207E2,3E0,4.73287E1,4.73837E1,9.8029E4,2E0,4E0,2.13E3,4.73375E1,-1.2234E2,4E0,9.6574E4,-1.22207E2,1E0,3.4E3,1E0,-3.006188E-2,-1.9511523E-2,-3.425724E-3,2.8001731E-2,-2.2212675E-2,-1.3119893E-2,-5.2311155E-3,8.631541E-3,-4.747081E-2,-1.8264303E-2,-6.1533893E-3,-2.3188801E-2,-2.6045633E-3,5.9295944E-3,1.1876128E-2,2.99676E-2,-1.4462384E-2,-4.5124646E-3,2.151737E-2,2.2239257E-3,1.8904941E-2,5.2833147E-2,2.1558963E-3,1.6793868E-2,6.1469745E-2,3.4734428E-2,1.1760623E-2,7.453083E-2,3.670212E-2,6.0171288E-2,2.1488508E-2,7.2209686E-2],"split_indices":[3,15,15,3,3,4,9,7,4,10,7,7,16,14,16,16,7,15,15,14,5,8,17,15,16,7,4,16,6,17,6,0,0,0,0,0,0,0,0,0,0,0,0,0,0,0,0,0,0,0,0,0,0,0,0,0,0,0,0,0,0,0,0],"split_type":[0,0,0,0,0,0,0,0,0,0,0,0,0,0,0,0,0,0,0,0,0,0,0,0,0,0,0,0,0,0,0,0,0,0,0,0,0,0,0,0,0,0,0,0,0,0,0,0,0,0,0,0,0,0,0,0,0,0,0,0,0,0,0],"sum_hessian":[1.6209E4,1.0177E4,6.032E3,3.927E3,6.25E3,1.641E3,4.391E3,1.167E3,2.76E3,1.496E3,4.754E3,1.172E3,4.69E2,3.401E3,9.9E2,1.127E3,4E1,2.569E3,1.91E2,2.94E2,1.202E3,4.468E3,2.86E2,1.022E3,1.5E2,5.6E1,4.13E2,9.8E1,3.303E3,3.96E2,5.94E2,6.88E2,4.39E2,2.9E1,1.1E1,5.5E2,2.019E3,8.7E1,1.04E2,1.4E1,2.8E2,1.091E3,1.11E2,2.761E3,1.707E3,1.73E2,1.13E2,2.67E2,7.55E2,4.6E1,1.04E2,4.4E1,1.2E1,2.79E2,1.34E2,4.3E1,5.5E1,3.278E3,2.5E1,2.76E2,1.2E2,5.82E2,1.2E1],"tree_param":{"num_deleted":"0","num_feature":"20","num_nodes":"63","size_leaf_vector":"1"}},{"base_weights":[2.0339337E-4,-7.8282535E-2,9.7916774E-2,-1.4152306E-1,-4.691044E-3,5.6292E-2,2.2970007E-1,-1.5092564E-1,2.7946224E-2,4.4986974E-2,-6.2456746E-2,-7.97444E-2,8.380872E-2,3.59502E-1,1.7016903E-1,-2.1764259E-1,-1.2590653E-1,-4.48561E-3,3.0198118E-1,7.8919545E-2,-5.334216E-2,-1.5357725E-1,-4.326436E-2,-9.493898E-2,7.3331594E-2,2.0183766E-1,5.9963454E-2,7.37126E-2,4.0155166E-1,1.612949E-1,6.8124E-1,-8.837587E-3,-2.368441E-2,-1.7478961E-2,-8.470072E-3,1.1082839E-2,-5.3878035E-3,7.623227E-3,4.1062053E-2,5.1051076E-3,2.8953746E-2,-3.1027077E-3,-3.6728583E-2,-3.7965503E-2,-1.4025556E-2,-6.551141E-4,-8.905574E-3,-1.5072554E-2,-6.452183E-3,1.6273157E-3,1.6554302E-2,1.188536E-2,2.4797946E-2,3.0156868E-3,1.3608284E-2,2.9305173E-3,4.1975796E-2,4.5717414E-2,1.0425006E-2,2.9050434E-2,1.2837092E-2,2.8086131E-2,7.101231E-2],"categories":[],"categories_nodes":[],"categories_segments":[],"categories_sizes":[],"default_left":[0,0,0,0,0,0,0,0,0,0,0,0,0,0,0,0,0,0,0,0,0,0,0,0,0,0,0,0,0,0,0,0,0,0,0,0,0,0,0,0,0,0,0,0,0,0,0,0,0,0,0,0,0,0,0,0,0,0,0,0,0,0,0],"id":13,"left_children":[1,3,5,7,9,11,13,15,17,19,21,23,25,27,29,31,33,35,37,39,41,43,45,47,49,51,53,55,57,59,61,-1,-1,-1,-1,-1,-1,-1,-1,-1,-1,-1,-1,-1,-1,-1,-1,-1,-1,-1,-1,-1,-1,-1,-1,-1,-1,-1,-1,-1,-1,-1,-1],"loss_changes":[1.2432419E2,4.1838478E1,3.9597504E1,7.7085266E0,1.1929223E1,2.0553522E1,1.3330132E1,7.619194E0,2.2676558E0,7.461423E0,3.354588E0,2.1561165E0,1.2838589E1,6.5078354E0,5.2871323E0,3.0767517E0,6.7007637E0,1.3102723E0,6.3087845E-1,9.740495E0,4.009864E0,9.526725E-1,2.670762E0,1.4173412E0,4.3926698E-1,2.9073944E0,8.617563E0,1.0787549E0,7.7907104E0,4.9442444E0,3.183651E-2,0E0,0E0,0E0,0E0,0E0,0E0,0E0,0E0,0E0,0E0,0E0,0E0,0E0,0E0,0E0,0E0,0E0,0E0,0E0,0E0,0E0,0E0,0E0,0E0,0E0,0E0,0E0,0E0,0E0,0E0,0E0,0E0],"parents":[2147483647,0,0,1,1,2,2,3,3,4,4,5,5,6,6,7,7,8,8,9,9,10,10,11,11,12,12,13,13,14,14,15,15,16,16,17,17,18,18,19,19,20,20,21,21,22,22,23,23,24,24,25,25,26,26,27,27,28,28,29,29,30,30],"right_children":[2,4,6,8,10,12,14,16,18,20,22,24,26,28,30,32,34,36,38,40,42,44,46,48,50,52,54,56,58,60,62,-1,-1,-1,-1,-1,-1,-1,-1,-1,-1,-1,-1,-1,-1,-1,-1,-1,-1,-1,-1,-1,-1,-1,-1,-1,-1,-1,-1,-1,-1,-1,-1],"split_conditions":[8E0,4.7567E1,2.84E3,1E0,4.76914E1,4.73942E1,-1.22205E2,7E0,4E0,-1.22186E2,6.993933E0,5.0529E4,1.952E3,4.74487E1,1E0,-1.22365E2,4.74136E1,-1.22358E2,2.5240492E9,-1.22283E2,-1.21932E2,3.292E3,4.77338E1,1.86E3,1.992E3,1.79E3,9E0,4E0,4.77026E1,9.801E4,7.6870804E0,-8.837587E-3,-2.368441E-2,-1.7478961E-2,-8.470072E-3,1.1082839E-2,-5.3878035E-3,7.623227E-3,4.1062053E-2,5.1051076E-3,2.8953746E-2,-3.1027077E-3,-3.6728583E-2,-3.7965503E-2,-1.4025556E-2,-6.551141E-4,-8.905574E-3,-1.5072554E-2,-6.452183E-3,1.6273157E-3,1.6554302E-2,1.188536E-2,2.4797946E-2,3.0156868E-3,1.3608284E-2,2.9305173E-3,4.1975796E-2,4.5717414E-2,1.0425006E-2,2.9050434E-2,1.2837092E-2,2.8086131E-2,7.101231E-2],"split_indices":[9,15,17,7,15,15,16,9,7,16,3,4,12,15,6,16,15,16,0,16,16,4,15,10,12,17,9,7,15,14,3,0,0,0,0,0,0,0,0,0,0,0,0,0,0,0,0,0,0,0,0,0,0,0,0,0,0,0,0,0,0,0,0],"split_type":[0,0,0,0,0,0,0,0,0,0,0,0,0,0,0,0,0,0,0,0,0,0,0,0,0,0,0,0,0,0,0,0,0,0,0,0,0,0,0,0,0,0,0,0,0,0,0,0,0,0,0,0,0,0,0,0,0,0,0,0,0,0,0],"sum_hessian":[1.6209E4,8.989E3,7.22E3,4.834E3,4.155E3,5.488E3,1.732E3,4.58E3,2.54E2,2.234E3,1.921E3,9.23E2,4.565E3,5.43E2,1.189E3,1.247E3,3.333E3,2.28E2,2.6E1,1.661E3,5.73E2,3.33E2,1.588E3,8.4E2,8.3E1,7.66E2,3.799E3,7E1,4.73E2,1.17E3,1.9E1,1.62E2,1.085E3,1.523E3,1.81E3,6.8E1,1.6E2,9E0,1.7E1,1.468E3,1.93E2,5.36E2,3.7E1,1.7E1,3.16E2,8.82E2,7.06E2,2.95E2,5.45E2,5.2E1,3.1E1,2.75E2,4.91E2,2.731E3,1.068E3,6.3E1,7E0,3.98E2,7.5E1,2.36E2,9.34E2,2E0,1.7E1],"tree_param":{"num_deleted":"0","num_feature":"20","num_nodes":"63","size_leaf_vector":"1"}},{"base_weights":[1.9666043E-4,-4.8438314E-2,1.298972E-1,-1.13948055E-1,1.6758168E-2,1.0531072E-1,3.348912E-1,-1.6843042E-1,-8.1857584E-2,6.285388E-2,-5.7185113E-2,-2.079064E-2,1.4079115E-1,2.7735922E-1,5.701339E-1,-4.389277E-4,-1.8531418E-1,-9.28017E-2,5.544233E-2,9.515867E-2,-3.968313E-2,-1.0746017E-1,-2.9379623E-2,-3.8932603E-2,1.0457791E-1,4.0101433E-1,1.2640487E-1,1.8985684E-1,3.5041746E-1,1.20363146E-1,6.115363E-1,-3.957418E-3,1.522947E-2,-2.2435421E-2,-1.3812105E-2,-1.3322542E-2,-5.6674625E-3,8.95526E-3,-6.263719E-3,3.1656835E-3,1.69977E-2,-2.405125E-3,-2.7632123E-2,-2.3859516E-2,-9.110118E-3,1.3475645E-3,-6.5604723E-3,-9.663775E-3,-1.4128649E-3,7.2562336E-3,2.4501985E-2,5.0859373E-2,2.9378796E-2,2.5771752E-2,1.0685178E-2,1.5947457E-2,3.2682315E-2,3.281483E-2,7.1738206E-2,-1.0108713E-2,3.177408E-2,4.7345046E-2,6.757371E-2],"categories":[],"categories_nodes":[],"categories_segments":[],"categories_sizes":[],"default_left":[0,0,0,0,0,0,0,0,0,0,0,0,0,0,0,0,0,0,0,0,0,0,0,0,0,0,0,0,0,0,0,0,0,0,0,0,0,0,0,0,0,0,0,0,0,0,0,0,0,0,0,0,0,0,0,0,0,0,0,0,0,0,0],"id":14,"left_children":[1,3,5,7,9,11,13,15,17,19,21,23,25,27,29,31,33,35,37,39,41,43,45,47,49,51,53,55,57,59,61,-1,-1,-1,-1,-1,-1,-1,-1,-1,-1,-1,-1,-1,-1,-1,-1,-1,-1,-1,-1,-1,-1,-1,-1,-1,-1,-1,-1,-1,-1,-1,-1],"loss_changes":[1.022587E2,5.0357048E1,2.2246956E1,1.0268356E1,2.014764E1,1.7671265E1,6.2434387E0,6.180275E0,5.5693703E0,1.2064359E1,3.170127E0,1.9782782E0,1.1487221E1,2.3755112E0,1.6395798E0,1.2014807E0,3.6170044E0,5.0015907E0,1.1092057E0,1.31504135E1,3.2226672E0,1.7116146E0,2.2720985E0,1.0850034E0,4.76817E-1,1.7077713E0,7.4748917E0,6.8027735E-1,1.4561977E0,4.2550355E-1,4.247532E-1,0E0,0E0,0E0,0E0,0E0,0E0,0E0,0E0,0E0,0E0,0E0,0E0,0E0,0E0,0E0,0E0,0E0,0E0,0E0,0E0,0E0,0E0,0E0,0E0,0E0,0E0,0E0,0E0,0E0,0E0,0E0,0E0],"parents":[2147483647,0,0,1,1,2,2,3,3,4,4,5,5,6,6,7,7,8,8,9,9,10,10,11,11,12,12,13,13,14,14,15,15,16,16,17,17,18,18,19,19,20,20,21,21,22,22,23,23,24,24,25,25,26,26,27,27,28,28,29,29,30,30],"right_children":[2,4,6,8,10,12,14,16,18,20,22,24,26,28,30,32,34,36,38,40,42,44,46,48,50,52,54,56,58,60,62,-1,-1,-1,-1,-1,-1,-1,-1,-1,-1,-1,-1,-1,-1,-1,-1,-1,-1,-1,-1,-1,-1,-1,-1,-1,-1,-1,-1,-1,-1,-1,-1],"split_conditions":[2.28E3,4.7567E1,3E0,1.75E0,4.76962E1,4.7476E1,1E0,-1.22376E2,3.094E4,-1.22165E2,7.2723985E0,5.0529E4,9.8005E4,2.84E3,4.73864E1,1E0,4E0,4.74225E1,3.4385021E9,1.37E3,-1.21932E2,3.844E3,4.77296E1,4.73375E1,3.52E3,-1.22207E2,1.955E3,1E1,5.01E3,2.0257005E9,4.75499E1,-3.957418E-3,1.522947E-2,-2.2435421E-2,-1.3812105E-2,-1.3322542E-2,-5.6674625E-3,8.95526E-3,-6.263719E-3,3.1656835E-3,1.69977E-2,-2.405125E-3,-2.7632123E-2,-2.3859516E-2,-9.110118E-3,1.3475645E-3,-6.5604723E-3,-9.663775E-3,-1.4128649E-3,7.2562336E-3,2.4501985E-2,5.0859373E-2,2.9378796E-2,2.5771752E-2,1.0685178E-2,1.5947457E-2,3.2682315E-2,3.281483E-2,7.1738206E-2,-1.0108713E-2,3.177408E-2,4.7345046E-2,6.757371E-2],"split_indices":[17,15,7,2,15,15,6,16,4,16,3,4,14,17,15,7,8,15,0,10,16,4,15,15,10,16,12,9,10,0,15,0,0,0,0,0,0,0,0,0,0,0,0,0,0,0,0,0,0,0,0,0,0,0,0,0,0,0,0,0,0,0,0],"split_type":[0,0,0,0,0,0,0,0,0,0,0,0,0,0,0,0,0,0,0,0,0,0,0,0,0,0,0,0,0,0,0,0,0,0,0,0,0,0,0,0,0,0,0,0,0,0,0,0,0,0,0,0,0,0,0,0,0,0,0,0,0,0,0],"sum_hessian":[1.6209E4,1.1789E4,4.42E3,5.88E3,5.909E3,3.948E3,4.72E2,2.178E3,3.702E3,3.64E3,2.269E3,8.67E2,3.081E3,3.81E2,9.1E1,1.99E2,1.979E3,3.429E3,2.73E2,2.768E3,8.72E2,8.07E2,1.462E3,7.58E2,1.09E2,1.6E2,2.921E3,1.75E2,2.06E2,8E0,8.3E1,1.59E2,4E1,1.081E3,8.98E2,1.617E3,1.812E3,2.12E2,6.1E1,1.498E3,1.27E3,8.19E2,5.3E1,8.8E1,7.19E2,6.7E2,7.92E2,2.27E2,5.31E2,9E1,1.9E1,7.8E1,8.2E1,3.77E2,2.544E3,1.45E2,3E1,1.96E2,1E1,4E0,4E0,2.9E1,5.4E1],"tree_param":{"num_deleted":"0","num_feature":"20","num_nodes":"63","size_leaf_vector":"1"}},{"base_weights":[1.9783486E-4,-4.0405184E-2,1.314526E-1,-1.1672564E-1,3.7076853E-3,1.092153E-1,3.1077847E-1,-1.8319392E-1,-8.315516E-2,-5.0634935E-2,4.2788327E-2,1.5350327E-2,1.4242354E-1,2.5815067E-1,5.3600866E-1,-1.8914281E-1,1.8035266E-1,-9.511905E-2,4.560566E-2,-1.4732872E-1,-3.4145176E-2,6.190602E-2,-4.658365E-2,-7.223806E-3,1.387425E-1,1.6409445E-1,-1.3030023E-2,1.752371E-1,3.206065E-1,1.3674031E-1,5.6113845E-1,-3.1636443E-2,-1.743189E-2,2.5791591E-2,-5.5940826E-3,-1.5853284E-2,-7.730967E-3,7.834206E-3,-3.052458E-3,-4.0692385E-2,-1.3450942E-2,-6.4142556E-3,1.2297352E-3,2.7397254E-3,1.1310404E-2,-6.2706782E-3,6.902888E-3,-2.249975E-3,9.787356E-3,9.49748E-3,1.95737E-2,2.1171844E-2,9.17404E-3,-6.092638E-3,8.196688E-3,1.3256173E-2,2.975287E-2,2.9915918E-2,6.5216556E-2,-7.3319273E-3,3.7123963E-2,5.682526E-2,2.0901784E-3],"categories":[],"categories_nodes":[],"categories_segments":[],"categories_sizes":[],"default_left":[0,0,0,0,0,0,0,0,0,0,0,0,0,0,0,0,0,0,0,0,0,0,0,0,0,0,0,0,0,0,0,0,0,0,0,0,0,0,0,0,0,0,0,0,0,0,0,0,0,0,0,0,0,0,0,0,0,0,0,0,0,0,0],"id":15,"left_children":[1,3,5,7,9,11,13,15,17,19,21,23,25,27,29,31,33,35,37,39,41,43,45,47,49,51,53,55,57,59,61,-1,-1,-1,-1,-1,-1,-1,-1,-1,-1,-1,-1,-1,-1,-1,-1,-1,-1,-1,-1,-1,-1,-1,-1,-1,-1,-1,-1,-1,-1,-1,-1],"loss_changes":[8.639391E1,4.1683723E1,1.5239037E1,1.0104042E1,1.666719E1,1.0623978E1,4.8637505E0,3.3235703E0,4.6488857E0,5.2295713E0,7.80258E0,2.4856427E0,8.484833E0,1.7252007E0,7.159176E-1,2.7680702E0,4.726202E-1,3.103651E0,6.4289457E-1,1.5359678E0,3.9099789E0,6.641762E0,1.5048777E0,1.2143254E0,3.256533E-1,7.5957756E0,1.4109458E0,7.4338484E-1,1.1915531E0,3.2277197E-1,2.725296E-1,0E0,0E0,0E0,0E0,0E0,0E0,0E0,0E0,0E0,0E0,0E0,0E0,0E0,0E0,0E0,0E0,0E0,0E0,0E0,0E0,0E0,0E0,0E0,0E0,0E0,0E0,0E0,0E0,0E0,0E0,0E0,0E0],"parents":[2147483647,0,0,1,1,2,2,3,3,4,4,5,5,6,6,7,7,8,8,9,9,10,10,11,11,12,12,13,13,14,14,15,15,16,16,17,17,18,18,19,19,20,20,21,21,22,22,23,23,24,24,25,25,26,26,27,27,28,28,29,29,30,30],"right_children":[2,4,6,8,10,12,14,16,18,20,22,24,26,28,30,32,34,36,38,40,42,44,46,48,50,52,54,56,58,60,62,-1,-1,-1,-1,-1,-1,-1,-1,-1,-1,-1,-1,-1,-1,-1,-1,-1,-1,-1,-1,-1,-1,-1,-1,-1,-1,-1,-1,-1,-1,-1,-1],"split_conditions":[7.8438487E0,4.7512E1,3E0,1.75E0,1.6E3,4.7525E1,1E0,3E0,3.3042E4,6.856462E0,4.7731E1,5.445E4,4.77338E1,2.84E3,4.73581E1,6.7452364E0,1.952E3,4.73263E1,3.3950405E9,3E0,4E0,4E0,2.7007E4,3.12E3,1.995E3,-1.2212E2,2.8353E4,1E1,5.01E3,2E0,9.40654E9,-3.1636443E-2,-1.743189E-2,2.5791591E-2,-5.5940826E-3,-1.5853284E-2,-7.730967E-3,7.834206E-3,-3.052458E-3,-4.0692385E-2,-1.3450942E-2,-6.4142556E-3,1.2297352E-3,2.7397254E-3,1.1310404E-2,-6.2706782E-3,6.902888E-3,-2.249975E-3,9.787356E-3,9.49748E-3,1.95737E-2,2.1171844E-2,9.17404E-3,-6.092638E-3,8.196688E-3,1.3256173E-2,2.975287E-2,2.9915918E-2,6.5216556E-2,-7.3319273E-3,3.7123963E-2,5.682526E-2,2.0901784E-3],"split_indices":[3,15,7,2,17,15,6,7,4,3,15,4,15,17,15,3,12,15,0,8,8,8,4,17,12,16,18,9,10,5,0,0,0,0,0,0,0,0,0,0,0,0,0,0,0,0,0,0,0,0,0,0,0,0,0,0,0,0,0,0,0,0,0],"split_type":[0,0,0,0,0,0,0,0,0,0,0,0,0,0,0,0,0,0,0,0,0,0,0,0,0,0,0,0,0,0,0,0,0,0,0,0,0,0,0,0,0,0,0,0,0,0,0,0,0,0,0,0,0,0,0,0,0,0,0,0,0,0,0],"sum_hessian":[1.6209E4,1.238E4,3.829E3,4.534E3,7.846E3,3.408E3,4.21E2,1.52E3,3.014E3,3.282E3,4.564E3,8.91E2,2.517E3,3.43E2,7.8E1,1.496E3,2.4E1,2.758E3,2.56E2,4.77E2,2.805E3,3.76E3,8.04E2,7.54E2,1.37E2,2.209E3,3.08E2,1.49E2,1.94E2,5E0,7.3E1,1.54E2,1.342E3,1.8E1,6E0,6.03E2,2.155E3,1.79E2,7.7E1,2.1E1,4.56E2,1.704E3,1.101E3,2.247E3,1.513E3,7.06E2,9.8E1,6.59E2,9.5E1,7.9E1,5.8E1,1.331E3,8.78E2,2.05E2,1.03E2,1.12E2,3.7E1,1.84E2,1E1,3E0,2E0,7.2E1,1E0],"tree_param":{"num_deleted":"0","num_feature":"20","num_nodes":"63","size_leaf_vector":"1"}},{"base_weights":[1.9060579E-4,-6.0033146E-2,7.516794E-2,-1.05264775E-1,-3.1463723E-3,4.703364E-2,1.9815771E-1,2.3068948E-2,-1.1503126E-1,4.046275E-2,-4.9930383E-2,-3.9853986E-2,7.282312E-2,1.8129909E-1,4.5210257E-1,-1.5105571E-1,3.5026297E-2,-1.4210819E-1,-6.34069E-2,7.1313865E-2,-4.8848998E-2,-4.10325E-2,-1.920121E-1,-4.9904365E-2,1.7268112E-1,5.4578207E-2,1.8173146E-1,1.7005758E-1,5.11929E-1,3.7358952E-1,6.96905E-1,-1.6945977E-2,-2.1271468E-3,-2.22146E-2,4.285561E-3,-3.544978E-2,-1.3456983E-2,-9.560203E-3,-1.4228093E-4,1.0569891E-2,-5.7319505E-3,-3.0834158E-3,-3.282414E-2,-8.084425E-3,-1.1411998E-3,-1.6645942E-2,-4.138225E-2,-6.096954E-3,7.7775903E-3,8.822157E-3,2.8298354E-2,1.915996E-2,4.268137E-3,1.6513428E-2,4.6021897E-2,3.2546356E-2,1.4948616E-2,-1.2910944E-2,5.3118266E-2,3.790266E-2,1.28081E-3,7.5590454E-2,2.8668094E-2],"categories":[],"categories_nodes":[],"categories_segments":[],"categories_sizes":[],"default_left":[0,0,0,0,0,0,0,0,0,0,0,0,0,0,0,0,0,0,0,0,0,0,0,0,0,0,0,0,0,0,0,0,0,0,0,0,0,0,0,0,0,0,0,0,0,0,0,0,0,0,0,0,0,0,0,0,0,0,0,0,0,0,0],"id":16,"left_children":[1,3,5,7,9,11,13,15,17,19,21,23,25,27,29,31,33,35,37,39,41,43,45,47,49,51,53,55,57,59,61,-1,-1,-1,-1,-1,-1,-1,-1,-1,-1,-1,-1,-1,-1,-1,-1,-1,-1,-1,-1,-1,-1,-1,-1,-1,-1,-1,-1,-1,-1,-1,-1],"loss_changes":[7.319942E1,2.3131668E1,2.4977009E1,6.2795258E0,8.128175E0,1.3174245E1,5.671913E0,7.444257E-1,6.496483E0,5.685052E0,2.4219642E0,2.8837523E0,8.997261E0,4.6035156E0,1.334919E0,5.1332116E-2,6.8000966E-1,4.8387604E0,3.1987877E0,6.786615E0,2.6574802E0,2.1335094E0,5.715828E-1,1.8216081E0,5.4331625E-1,6.3232136E0,2.9283772E0,3.8579865E0,5.7461643E-1,1.2265015E-1,2.4315357E-1,0E0,0E0,0E0,0E0,0E0,0E0,0E0,0E0,0E0,0E0,0E0,0E0,0E0,0E0,0E0,0E0,0E0,0E0,0E0,0E0,0E0,0E0,0E0,0E0,0E0,0E0,0E0,0E0,0E0,0E0,0E0,0E0],"parents":[2147483647,0,0,1,1,2,2,3,3,4,4,5,5,6,6,7,7,8,8,9,9,10,10,11,11,12,12,13,13,14,14,15,15,16,16,17,17,18,18,19,19,20,20,21,21,22,22,23,23,24,24,25,25,26,26,27,27,28,28,29,29,30,30],"right_children":[2,4,6,8,10,12,14,16,18,20,22,24,26,28,30,32,34,36,38,40,42,44,46,48,50,52,54,56,58,60,62,-1,-1,-1,-1,-1,-1,-1,-1,-1,-1,-1,-1,-1,-1,-1,-1,-1,-1,-1,-1,-1,-1,-1,-1,-1,-1,-1,-1,-1,-1,-1,-1],"split_conditions":[8E0,4.75747E1,8.104704E0,-1.22378E2,4.76914E1,4.74648E1,1.2E1,9.8024E4,-1.22179E2,-1.22186E2,-1.22025E2,3E0,1E0,1E0,5E0,1.5E0,3E0,6E0,4.74681E1,9.8122E4,-1.21932E2,1.52E3,-1.21819E2,5.445E4,4E0,1.928E3,1E0,1.952E3,1.2303964E8,5E0,4.705E4,-1.6945977E-2,-2.1271468E-3,-2.22146E-2,4.285561E-3,-3.544978E-2,-1.3456983E-2,-9.560203E-3,-1.4228093E-4,1.0569891E-2,-5.7319505E-3,-3.0834158E-3,-3.282414E-2,-8.084425E-3,-1.1411998E-3,-1.6645942E-2,-4.138225E-2,-6.096954E-3,7.7775903E-3,8.822157E-3,2.8298354E-2,1.915996E-2,4.268137E-3,1.6513428E-2,4.6021897E-2,3.2546356E-2,1.4948616E-2,-1.2910944E-2,5.3118266E-2,3.790266E-2,1.28081E-3,7.5590454E-2,2.8668094E-2],"split_indices":[9,15,3,16,15,15,9,14,16,16,16,7,7,6,2,5,8,9,15,14,16,17,16,4,8,12,6,12,0,8,4,0,0,0,0,0,0,0,0,0,0,0,0,0,0,0,0,0,0,0,0,0,0,0,0,0,0,0,0,0,0,0,0],"split_type":[0,0,0,0,0,0,0,0,0,0,0,0,0,0,0,0,0,0,0,0,0,0,0,0,0,0,0,0,0,0,0,0,0,0,0,0,0,0,0,0,0,0,0,0,0,0,0,0,0,0,0,0,0,0,0,0,0,0,0,0,0,0,0],"sum_hessian":[1.6209E4,8.989E3,7.22E3,5.007E3,3.982E3,5.877E3,1.343E3,3.54E2,4.653E3,2.061E3,1.921E3,1.345E3,4.532E3,1.261E3,8.2E1,2.2E1,3.32E2,3.051E3,1.602E3,1.532E3,5.29E2,1.809E3,1.12E2,1.285E3,6E1,3.883E3,6.49E2,1.221E3,4E1,6.4E1,1.8E1,1.9E1,3E0,9E0,3.23E2,1.03E2,2.948E3,1.054E3,5.48E2,1.209E3,3.23E2,4.98E2,3.1E1,7.71E2,1.038E3,1.02E2,1E1,1.183E3,1.02E2,3.5E1,2.5E1,3.09E2,3.574E3,6.14E2,3.5E1,1.41E2,1.08E3,1E0,3.9E1,6.3E1,1E0,1.5E1,3E0],"tree_param":{"num_deleted":"0","num_feature":"20","num_nodes":"63","size_leaf_vector":"1"}},{"base_weights":[1.8153727E-4,-3.5104793E-2,1.0690775E-1,-8.139818E-2,1.5156723E-2,8.841885E-4,1.3429937E-1,-1.1555204E-1,-4.1307665E-2,6.367226E-2,-3.576353E-2,-1.7420655E-2,1.0494895E-1,2.1564367E-1,8.752236E-2,-1.817492E-2,-1.3073437E-1,-5.1853668E-2,8.221429E-2,9.842436E-2,-3.9243262E-2,-6.038623E-3,-7.5157434E-2,-4.4990107E-2,4.478618E-2,5.7909306E-2,2.059864E-1,2.780993E-1,2.3841452E-2,6.929275E-2,2.1557629E-1,-1.6851608E-2,5.0572347E-4,-1.6103445E-2,-9.29209E-3,-5.8066566E-3,1.2226419E-2,-7.4918554E-3,1.1874707E-2,1.3243501E-2,-8.9643366E-4,-1.5691334E-2,-1.2713512E-3,-1.7937107E-2,5.8015686E-4,-1.43830255E-2,-5.2556763E-3,-5.532453E-3,7.2396854E-3,1.3220814E-3,9.975833E-3,4.2038416E-3,3.0661011E-2,-1.0973285E-3,2.38215E-2,1.948986E-2,3.453202E-2,-3.0293467E-4,2.389025E-2,6.454141E-3,4.8465874E-2,7.006212E-2,2.0297207E-2],"categories":[],"categories_nodes":[],"categories_segments":[],"categories_sizes":[],"default_left":[0,0,0,0,0,0,0,0,0,0,0,0,0,0,0,0,0,0,0,0,0,0,0,0,0,0,0,0,0,0,0,0,0,0,0,0,0,0,0,0,0,0,0,0,0,0,0,0,0,0,0,0,0,0,0,0,0,0,0,0,0,0,0],"id":17,"left_children":[1,3,5,7,9,11,13,15,17,19,21,23,25,27,29,31,33,35,37,39,41,43,45,47,49,51,53,55,57,59,61,-1,-1,-1,-1,-1,-1,-1,-1,-1,-1,-1,-1,-1,-1,-1,-1,-1,-1,-1,-1,-1,-1,-1,-1,-1,-1,-1,-1,-1,-1,-1,-1],"loss_changes":[6.1050224E1,2.834834E1,1.169783E1,8.678989E0,1.4434488E1,1.5790766E0,1.2161068E1,5.059704E0,3.806735E0,1.07048435E1,3.338011E0,1.2110958E0,5.774144E-1,1.3984993E1,4.733177E0,1.6179951E0,3.3787498E0,2.9170775E0,1.3292114E0,8.171513E0,2.358054E0,3.3380628E0,1.8952556E0,5.97224E-1,3.7522298E-1,3.2656148E-1,2.7531374E-1,4.85997E0,1.665036E0,3.4855776E0,1.4045372E0,0E0,0E0,0E0,0E0,0E0,0E0,0E0,0E0,0E0,0E0,0E0,0E0,0E0,0E0,0E0,0E0,0E0,0E0,0E0,0E0,0E0,0E0,0E0,0E0,0E0,0E0,0E0,0E0,0E0,0E0,0E0,0E0],"parents":[2147483647,0,0,1,1,2,2,3,3,4,4,5,5,6,6,7,7,8,8,9,9,10,10,11,11,12,12,13,13,14,14,15,15,16,16,17,17,18,18,19,19,20,20,21,21,22,22,23,23,24,24,25,25,26,26,27,27,28,28,29,29,30,30],"right_children":[2,4,6,8,10,12,14,16,18,20,22,24,26,28,30,32,34,36,38,40,42,44,46,48,50,52,54,56,58,60,62,-1,-1,-1,-1,-1,-1,-1,-1,-1,-1,-1,-1,-1,-1,-1,-1,-1,-1,-1,-1,-1,-1,-1,-1,-1,-1,-1,-1,-1,-1,-1,-1],"split_conditions":[2.34E3,4.75747E1,4.7476E1,1.41E3,4.76861E1,2E0,-1.22194E2,-1.22372E2,1E0,-1.22166E2,4.77296E1,-1.22067E2,4.74038E1,4.77026E1,3.67E3,4.73221E1,4E0,9.6574E4,4.73414E1,9.8122E4,7.2442274E0,2E3,1.25E0,9.8102E4,8.013012E0,1.963E3,1.5E3,4.76071E1,4E0,1E0,-1.22186E2,-1.6851608E-2,5.0572347E-4,-1.6103445E-2,-9.29209E-3,-5.8066566E-3,1.2226419E-2,-7.4918554E-3,1.1874707E-2,1.3243501E-2,-8.9643366E-4,-1.5691334E-2,-1.2713512E-3,-1.7937107E-2,5.8015686E-4,-1.43830255E-2,-5.2556763E-3,-5.532453E-3,7.2396854E-3,1.3220814E-3,9.975833E-3,4.2038416E-3,3.0661011E-2,-1.0973285E-3,2.38215E-2,1.948986E-2,3.453202E-2,-3.0293467E-4,2.389025E-2,6.454141E-3,4.8465874E-2,7.006212E-2,2.0297207E-2],"split_indices":[17,15,15,10,15,7,16,16,7,16,15,16,15,15,17,15,8,4,15,14,3,4,2,14,3,13,10,15,7,6,16,0,0,0,0,0,0,0,0,0,0,0,0,0,0,0,0,0,0,0,0,0,0,0,0,0,0,0,0,0,0,0,0],"split_type":[0,0,0,0,0,0,0,0,0,0,0,0,0,0,0,0,0,0,0,0,0,0,0,0,0,0,0,0,0,0,0,0,0,0,0,0,0,0,0,0,0,0,0,0,0,0,0,0,0,0,0,0,0,0,0,0,0,0,0,0,0,0,0],"sum_hessian":[1.6209E4,1.2182E4,4.027E3,6.341E3,5.841E3,8.27E2,3.2E3,3.423E3,2.918E3,2.991E3,2.85E3,7.04E2,1.23E2,1.167E3,2.033E3,4.62E2,2.961E3,2.689E3,2.29E2,2.236E3,7.55E2,1.625E3,1.225E3,4.88E2,2.16E2,8.5E1,3.8E1,8.8E2,2.87E2,1.781E3,2.52E2,6.1E1,4.01E2,1.642E3,1.319E3,2.597E3,9.2E1,4.3E1,1.86E2,1.698E3,5.38E2,1.38E2,6.17E2,1.03E2,1.522E3,3.02E2,9.23E2,4.49E2,3.9E1,1.38E2,7.8E1,8.1E1,4E0,5E0,3.3E1,3.95E2,4.85E2,2.56E2,3.1E1,1.762E3,1.9E1,5E0,2.47E2],"tree_param":{"num_deleted":"0","num_feature":"20","num_nodes":"63","size_leaf_vector":"1"}},{"base_weights":[1.7701852E-4,-4.9526304E-2,6.497425E-2,-1.0559906E-1,-1.6319683E-2,4.385243E-2,1.7581548E-1,-1.3194282E-1,-5.2140646E-2,-1.0792563E-1,-3.4060334E-3,-5.4634307E-3,8.190871E-2,1.5440199E-1,3.523952E-1,-1.4034186E-1,4.0332608E-2,-8.613843E-2,-1.664501E-3,-1.4952102E-1,-4.9300686E-2,2.7612752E-1,-7.389067E-3,-3.5095226E-2,4.1347817E-2,1.0762404E-1,-1.0885879E-2,2.0206763E-1,9.3368545E-2,2.741888E-1,5.0390846E-1,-2.9114608E-2,-1.3125618E-2,-1.2692944E-3,2.5808929E-2,-1.3736069E-2,-3.6893543E-3,-3.2601387E-3,5.2391896E-3,-4.005655E-2,-1.3649732E-2,-2.0041117E-2,-3.093664E-3,1.3948351E-2,3.269784E-2,-5.614044E-5,-1.5447478E-2,-6.787725E-3,-1.3180409E-3,-5.664563E-3,6.3688643E-3,1.42599065E-2,4.4388426E-3,-3.3433773E-3,4.6471874E-3,6.078294E-5,2.2785326E-2,8.71368E-3,4.2132776E-2,4.824303E-2,2.3159837E-2,5.9759237E-2,3.420072E-2],"categories":[],"categories_nodes":[],"categories_segments":[],"categories_sizes":[],"default_left":[0,0,0,0,0,0,0,0,0,0,0,0,0,0,0,0,0,0,0,0,0,0,0,0,0,0,0,0,0,0,0,0,0,0,0,0,0,0,0,0,0,0,0,0,0,0,0,0,0,0,0,0,0,0,0,0,0,0,0,0,0,0,0],"id":18,"left_children":[1,3,5,7,9,11,13,15,17,19,21,23,25,27,29,31,33,35,37,39,41,43,45,47,49,51,53,55,57,59,61,-1,-1,-1,-1,-1,-1,-1,-1,-1,-1,-1,-1,-1,-1,-1,-1,-1,-1,-1,-1,-1,-1,-1,-1,-1,-1,-1,-1,-1,-1,-1,-1],"loss_changes":[5.220976E1,1.708014E1,1.6467093E1,4.798229E0,6.817072E0,1.1095959E1,4.203205E0,3.311943E0,1.9355917E0,1.728859E0,5.6268945E0,3.5746243E0,7.9640694E0,2.9077873E0,1.2956009E0,2.9473648E0,1.2387694E0,1.6950531E0,7.626212E-1,1.3054476E0,8.1797487E-1,4.477334E-1,5.0030947E0,1.1327597E0,2.1906729E0,5.772751E0,9.3919367E-1,2.9297123E0,8.6867213E-1,6.1553574E-1,4.0232086E-1,0E0,0E0,0E0,0E0,0E0,0E0,0E0,0E0,0E0,0E0,0E0,0E0,0E0,0E0,0E0,0E0,0E0,0E0,0E0,0E0,0E0,0E0,0E0,0E0,0E0,0E0,0E0,0E0,0E0,0E0,0E0,0E0],"parents":[2147483647,0,0,1,1,2,2,3,3,4,4,5,5,6,6,7,7,8,8,9,9,10,10,11,11,12,12,13,13,14,14,15,15,16,16,17,17,18,18,19,19,20,20,21,21,22,22,23,23,24,24,25,25,26,26,27,27,28,28,29,29,30,30],"right_children":[2,4,6,8,10,12,14,16,18,20,22,24,26,28,30,32,34,36,38,40,42,44,46,48,50,52,54,56,58,60,62,-1,-1,-1,-1,-1,-1,-1,-1,-1,-1,-1,-1,-1,-1,-1,-1,-1,-1,-1,-1,-1,-1,-1,-1,-1,-1,-1,-1,-1,-1,-1,-1],"split_conditions":[7.620705E0,4.7512E1,1E1,-1.22169E2,8.7E2,4.7559E1,8.552561E0,1E0,4.73942E1,4E0,9.8005E4,9.75E3,4.77239E1,-1.22118E2,1.2E1,6.7452364E0,1E0,1.61E3,-1.22097E2,9.8034E4,6.7E2,4.76029E1,-1.21986E2,2.12E3,4.73344E1,-1.22145E2,1.4311E4,4.74735E1,1E0,1.951E3,-1.2216E2,-2.9114608E-2,-1.3125618E-2,-1.2692944E-3,2.5808929E-2,-1.3736069E-2,-3.6893543E-3,-3.2601387E-3,5.2391896E-3,-4.005655E-2,-1.3649732E-2,-2.0041117E-2,-3.093664E-3,1.3948351E-2,3.269784E-2,-5.614044E-5,-1.5447478E-2,-6.787725E-3,-1.3180409E-3,-5.664563E-3,6.3688643E-3,1.42599065E-2,4.4388426E-3,-3.3433773E-3,4.6471874E-3,6.078294E-5,2.2785326E-2,8.71368E-3,4.2132776E-2,4.824303E-2,2.3159837E-2,5.9759237E-2,3.420072E-2],"split_indices":[3,15,9,16,10,15,3,7,15,8,14,18,15,16,9,3,6,17,16,14,10,15,16,10,15,16,18,15,6,12,16,0,0,0,0,0,0,0,0,0,0,0,0,0,0,0,0,0,0,0,0,0,0,0,0,0,0,0,0,0,0,0,0],"split_type":[0,0,0,0,0,0,0,0,0,0,0,0,0,0,0,0,0,0,0,0,0,0,0,0,0,0,0,0,0,0,0,0,0,0,0,0,0,0,0,0,0,0,0,0,0,0,0,0,0,0,0,0,0,0,0,0,0,0,0,0,0,0,0],"sum_hessian":[1.6209E4,9.173E3,7.036E3,3.411E3,5.762E3,5.911E3,1.125E3,2.284E3,1.127E3,7.11E2,5.051E3,2.575E3,3.336E3,1.005E3,1.2E2,2.178E3,1.06E2,6.73E2,4.54E2,4.15E2,2.96E2,7E1,4.981E3,1.577E3,9.98E2,2.612E3,7.24E2,5.63E2,4.42E2,8.1E1,3.9E1,1.22E2,2.056E3,8.6E1,2E1,3.29E2,3.44E2,2.89E2,1.65E2,1.9E1,3.96E2,3.1E1,2.65E2,2E1,5E1,4.761E3,2.2E2,6.31E2,9.46E2,1.85E2,8.13E2,1.681E3,9.31E2,5.2E2,2.04E2,6.4E1,4.99E2,4.35E2,7E0,1.2E1,6.9E1,2.3E1,1.6E1],"tree_param":{"num_deleted":"0","num_feature":"20","num_nodes":"63","size_leaf_vector":"1"}},{"base_weights":[1.6998709E-4,-4.2246938E-2,6.385098E-2,-7.767415E-2,3.2611706E-3,4.0868275E-2,1.614432E-1,2.059659E-2,-8.928688E-2,5.0730478E-2,-4.5772374E-2,-3.1422134E-2,6.4613104E-2,1.4007054E-1,3.9497507E-1,-1.3183984E-1,3.5253793E-2,-1.200036E-1,-5.013973E-2,7.8351624E-2,-5.620598E-2,-1.6205782E-1,-3.5686653E-2,-5.084641E-2,2.7611835E-2,2.678603E-1,5.556998E-2,8.380409E-2,1.7554195E-1,1.5026444E-1,4.2559335E-1,-2.4931496E-2,-1.1365091E-2,-2.2885447E-2,4.0265005E-3,-3.1342056E-2,-1.1392101E-2,-8.158942E-3,2.8591048E-5,5.808503E-3,1.842471E-2,-1.9709323E-2,-2.9381446E-3,-2.4432654E-2,-1.1364241E-2,-8.920797E-4,-8.176873E-3,-5.7334746E-3,8.803885E-3,9.637951E-4,1.04358485E-2,3.5569403E-2,2.0753952E-2,4.2475127E-3,1.5547821E-2,1.7733058E-2,6.156312E-3,2.028912E-2,5.756348E-3,-1.3920188E-2,2.1554941E-2,4.3933686E-2,1.576712E-2],"categories":[],"categories_nodes":[],"categories_segments":[],"categories_sizes":[],"default_left":[0,0,0,0,0,0,0,0,0,0,0,0,0,0,0,0,0,0,0,0,0,0,0,0,0,0,0,0,0,0,0,0,0,0,0,0,0,0,0,0,0,0,0,0,0,0,0,0,0,0,0,0,0,0,0,0,0,0,0,0,0,0,0],"id":19,"left_children":[1,3,5,7,9,11,13,15,17,19,21,23,25,27,29,31,33,35,37,39,41,43,45,47,49,51,53,55,57,59,61,-1,-1,-1,-1,-1,-1,-1,-1,-1,-1,-1,-1,-1,-1,-1,-1,-1,-1,-1,-1,-1,-1,-1,-1,-1,-1,-1,-1,-1,-1,-1,-1],"loss_changes":[4.3788364E1,1.5687208E1,1.452985E1,6.2452965E0,9.917849E0,9.008629E0,6.1088066E0,1.2983029E0,5.8776817E0,6.399181E0,2.4524527E0,1.4898102E0,7.2451763E0,2.2465878E0,7.0778847E-1,8.063924E-2,7.0934725E-1,3.1890182E0,3.4144025E0,3.682805E0,1.6759684E0,6.374078E-1,2.3797832E0,8.8545585E-1,4.4317234E-1,8.162775E-1,4.9426317E0,9.04336E-1,2.2275944E0,2.7567625E-1,2.658062E-1,0E0,0E0,0E0,0E0,0E0,0E0,0E0,0E0,0E0,0E0,0E0,0E0,0E0,0E0,0E0,0E0,0E0,0E0,0E0,0E0,0E0,0E0,0E0,0E0,0E0,0E0,0E0,0E0,0E0,0E0,0E0,0E0],"parents":[2147483647,0,0,1,1,2,2,3,3,4,4,5,5,6,6,7,7,8,8,9,9,10,10,11,11,12,12,13,13,14,14,15,15,16,16,17,17,18,18,19,19,20,20,21,21,22,22,23,23,24,24,25,25,26,26,27,27,28,28,29,29,30,30],"right_children":[2,4,6,8,10,12,14,16,18,20,22,24,26,28,30,32,34,36,38,40,42,44,46,48,50,52,54,56,58,60,62,-1,-1,-1,-1,-1,-1,-1,-1,-1,-1,-1,-1,-1,-1,-1,-1,-1,-1,-1,-1,-1,-1,-1,-1,-1,-1,-1,-1,-1,-1,-1,-1],"split_conditions":[2.01E3,4.76029E1,1E0,-1.22376E2,4.76914E1,4.74648E1,1E0,9.8024E4,-1.22207E2,-1.22185E2,3.844E3,-1.22076E2,9.8005E4,4.7559E1,4.74038E1,1.25E0,3E0,6E0,4.74681E1,1.79E3,7.130899E0,7.17012E0,4.77364E1,8.1892E4,3.03E3,-1.22207E2,3.3E3,-1.22355E2,4.77061E1,1.1374004E9,4.77378E1,-2.4931496E-2,-1.1365091E-2,-2.2885447E-2,4.0265005E-3,-3.1342056E-2,-1.1392101E-2,-8.158942E-3,2.8591048E-5,5.808503E-3,1.842471E-2,-1.9709323E-2,-2.9381446E-3,-2.4432654E-2,-1.1364241E-2,-8.920797E-4,-8.176873E-3,-5.7334746E-3,8.803885E-3,9.637951E-4,1.04358485E-2,3.5569403E-2,2.0753952E-2,4.2475127E-3,1.5547821E-2,1.7733058E-2,6.156312E-3,2.028912E-2,5.756348E-3,-1.3920188E-2,2.1554941E-2,4.3933686E-2,1.576712E-2],"split_indices":[17,15,7,16,15,15,6,14,16,16,4,16,14,15,15,2,8,9,15,10,3,3,15,4,10,16,17,16,15,0,15,0,0,0,0,0,0,0,0,0,0,0,0,0,0,0,0,0,0,0,0,0,0,0,0,0,0,0,0,0,0,0,0],"split_type":[0,0,0,0,0,0,0,0,0,0,0,0,0,0,0,0,0,0,0,0,0,0,0,0,0,0,0,0,0,0,0,0,0,0,0,0,0,0,0,0,0,0,0,0,0,0,0,0,0,0,0,0,0,0,0,0,0,0,0,0,0,0,0],"sum_hessian":[1.6209E4,9.729E3,6.48E3,5.47E3,4.259E3,5.246E3,1.234E3,5.78E2,4.892E3,2.164E3,2.095E3,1.297E3,3.949E3,1.132E3,1.02E2,5E1,5.28E2,2.74E3,2.152E3,1.72E3,4.44E2,1.66E2,1.929E3,9.76E2,3.21E2,1.67E2,3.782E3,4.39E2,6.93E2,1.2E1,9E1,5E0,4.5E1,9E0,5.19E2,8.2E1,2.658E3,1.325E3,8.27E2,1.445E3,2.75E2,7E1,3.74E2,6E1,1.06E2,1.221E3,7.08E2,9.33E2,4.3E1,2.61E2,6E1,6.6E1,1.01E2,3.345E3,4.37E2,8.3E1,3.56E2,5.62E2,1.31E2,2E0,1E1,8.5E1,5E0],"tree_param":{"num_deleted":"0","num_feature":"20","num_nodes":"63","size_leaf_vector":"1"}},{"base_weights":[1.5660265E-4,-4.2292126E-2,5.3004395E-2,-1.08479306E-1,-2.4716996E-2,3.1984042E-2,1.3578431E-1,-1.428868E-1,-6.97311E-2,-8.877708E-2,-4.598885E-3,1.1389096E-1,1.703182E-2,1.23403326E-1,3.4000078E-1,-2.6289105E-1,-1.309931E-1,-1.6485791E-1,-4.6845943E-2,-1.0912315E-1,-2.0259697E-2,-3.2422636E-2,3.473634E-2,1.3434967E-1,1.5805096E-3,1.054425E-2,1.7175291E-1,2.4119319E-1,1.0530738E-1,2.7670634E-1,5.3863966E-1,-4.874077E-2,-1.9498786E-2,-1.3316524E-2,3.9428808E-2,-1.9477548E-2,7.225439E-3,3.2532406E-3,-6.768936E-3,-1.735638E-2,-9.351988E-3,-8.713133E-3,-4.8541056E-5,-1.5559724E-3,-8.282187E-3,2.2465053E-3,9.795266E-3,5.649067E-3,1.8764196E-2,-4.057326E-3,9.565449E-3,-5.076883E-3,2.399969E-3,1.3751878E-2,3.3082377E-2,3.045517E-2,1.1262985E-2,9.900521E-3,3.5593595E-2,3.2882385E-2,2.1268442E-2,5.8650244E-2,2.1252885E-2],"categories":[],"categories_nodes":[],"categories_segments":[],"categories_sizes":[],"default_left":[0,0,0,0,0,0,0,0,0,0,0,0,0,0,0,0,0,0,0,0,0,0,0,0,0,0,0,0,0,0,0,0,0,0,0,0,0,0,0,0,0,0,0,0,0,0,0,0,0,0,0,0,0,0,0,0,0,0,0,0,0,0,0],"id":20,"left_children":[1,3,5,7,9,11,13,15,17,19,21,23,25,27,29,31,33,35,37,39,41,43,45,47,49,51,53,55,57,59,61,-1,-1,-1,-1,-1,-1,-1,-1,-1,-1,-1,-1,-1,-1,-1,-1,-1,-1,-1,-1,-1,-1,-1,-1,-1,-1,-1,-1,-1,-1,-1,-1],"loss_changes":[3.6366486E1,1.0454922E1,1.256065E1,2.5045052E0,9.156288E0,7.052276E0,3.6545658E0,1.3900032E0,1.9276228E0,2.3649025E0,5.9199305E0,2.042467E0,4.8885264E0,2.9160976E0,8.9449215E-1,1.2618022E0,1.0908012E0,1.234211E0,1.1901449E0,1.2999477E0,5.156698E-1,2.691124E0,1.7362456E0,3.109661E0,5.5113E-1,3.8597176E0,1.0218539E0,1.4563398E0,1.8570051E0,1.4694738E-1,1.719141E-1,0E0,0E0,0E0,0E0,0E0,0E0,0E0,0E0,0E0,0E0,0E0,0E0,0E0,0E0,0E0,0E0,0E0,0E0,0E0,0E0,0E0,0E0,0E0,0E0,0E0,0E0,0E0,0E0,0E0,0E0,0E0,0E0],"parents":[2147483647,0,0,1,1,2,2,3,3,4,4,5,5,6,6,7,7,8,8,9,9,10,10,11,11,12,12,13,13,14,14,15,15,16,16,17,17,18,18,19,19,20,20,21,21,22,22,23,23,24,24,25,25,26,26,27,27,28,28,29,29,30,30],"right_children":[2,4,6,8,10,12,14,16,18,20,22,24,26,28,30,32,34,36,38,40,42,44,46,48,50,52,54,56,58,60,62,-1,-1,-1,-1,-1,-1,-1,-1,-1,-1,-1,-1,-1,-1,-1,-1,-1,-1,-1,-1,-1,-1,-1,-1,-1,-1,-1,-1,-1,-1,-1,-1],"split_conditions":[8E0,7E0,8.083328E0,4E0,4.74278E1,1.955E3,1.2E1,9.8024E4,4.73641E1,-1.22083E2,4E0,4.76861E1,3E0,1.955E3,5E0,6.8243737E0,1E0,1.76E3,-1.22358E2,7.1623974E0,4.72641E1,9.8133E4,2.01E3,4.76142E1,2.15E3,4.73864E1,1E0,9.8125E4,1E0,4.0743002E9,4.705E4,-4.874077E-2,-1.9498786E-2,-1.3316524E-2,3.9428808E-2,-1.9477548E-2,7.225439E-3,3.2532406E-3,-6.768936E-3,-1.735638E-2,-9.351988E-3,-8.713133E-3,-4.8541056E-5,-1.5559724E-3,-8.282187E-3,2.2465053E-3,9.795266E-3,5.649067E-3,1.8764196E-2,-4.057326E-3,9.565449E-3,-5.076883E-3,2.399969E-3,1.3751878E-2,3.3082377E-2,3.045517E-2,1.1262985E-2,9.900521E-3,3.5593595E-2,3.2882385E-2,2.1268442E-2,5.8650244E-2,2.1252885E-2],"split_indices":[9,9,3,8,15,12,9,14,15,16,8,15,7,12,2,3,6,17,16,3,15,14,17,15,17,15,6,14,6,0,4,0,0,0,0,0,0,0,0,0,0,0,0,0,0,0,0,0,0,0,0,0,0,0,0,0,0,0,0,0,0,0,0],"split_type":[0,0,0,0,0,0,0,0,0,0,0,0,0,0,0,0,0,0,0,0,0,0,0,0,0,0,0,0,0,0,0,0,0,0,0,0,0,0,0,0,0,0,0,0,0,0,0,0,0,0,0,0,0,0,0,0,0,0,0,0,0,0,0],"sum_hessian":[1.6209E4,8.989E3,7.22E3,1.885E3,7.104E3,5.759E3,1.461E3,9.97E2,8.88E2,1.697E3,5.407E3,8.88E2,4.871E3,1.379E3,8.2E1,8.8E1,9.09E2,1.71E2,7.17E2,1.308E3,3.89E2,3.167E3,2.24E3,7.51E2,1.37E2,4.676E3,1.95E2,1.82E2,1.197E3,6.4E1,1.8E1,1.9E1,6.9E1,9.06E2,3E0,1.52E2,1.9E1,1.49E2,5.68E2,2.53E2,1.055E3,8.8E1,3.01E2,2.374E3,7.93E2,1.877E3,3.63E2,3.06E2,4.45E2,9.5E1,4.2E1,8.41E2,3.835E3,1.62E2,3.3E1,1.21E2,6.1E1,1.169E3,2.8E1,3.3E1,3.1E1,1.5E1,3E0],"tree_param":{"num_deleted":"0","num_feature":"20","num_nodes":"63","size_leaf_vector":"1"}},{"base_weights":[1.5353551E-4,-3.2587327E-2,5.912893E-2,-8.331911E-2,-9.231503E-3,7.46304E-3,9.257065E-2,-1.318658E-1,-6.2510334E-2,-3.7433416E-2,3.07124E-2,-1.9896481E-2,5.8029436E-2,1.2451552E-1,2.7245536E-2,-1.3546105E-1,1.4736882E-1,-7.199813E-2,3.1854432E-2,-1.2552345E-1,-2.7076486E-2,1.7896973E-2,1.0977001E-1,-2.3645166E-2,1.398975E-1,1.2422025E-2,9.483809E-2,1.7217788E-1,3.1944145E-2,-1.0694961E-1,4.363519E-2,-1.426066E-2,2.1939364E-4,2.2655895E-2,-8.744868E-3,-7.6154494E-3,9.252383E-3,-3.0568618E-2,3.8192451E-3,-3.1424638E-2,-1.1339738E-2,-3.5162084E-3,7.2751814E-3,3.0033083E-3,-4.2512217E-3,9.0483185E-3,2.1926498E-2,-6.779869E-3,-1.2249964E-3,9.56254E-3,3.3056308E-2,4.517859E-4,2.06316E-2,1.6090646E-2,6.463391E-3,1.2971914E-2,2.2561816E-2,2.5955641E-3,3.0729769E-2,-1.1444674E-2,2.385814E-2,3.933881E-3,3.5261977E-2],"categories":[],"categories_nodes":[],"categories_segments":[],"categories_sizes":[],"default_left":[0,0,0,0,0,0,0,0,0,0,0,0,0,0,0,0,0,0,0,0,0,0,0,0,0,0,0,0,0,0,0,0,0,0,0,0,0,0,0,0,0,0,0,0,0,0,0,0,0,0,0,0,0,0,0,0,0,0,0,0,0,0,0],"id":21,"left_children":[1,3,5,7,9,11,13,15,17,19,21,23,25,27,29,31,33,35,37,39,41,43,45,47,49,51,53,55,57,59,61,-1,-1,-1,-1,-1,-1,-1,-1,-1,-1,-1,-1,-1,-1,-1,-1,-1,-1,-1,-1,-1,-1,-1,-1,-1,-1,-1,-1,-1,-1,-1,-1],"loss_changes":[3.1301903E1,1.2350447E1,9.998066E0,3.311266E0,8.043194E0,3.1485546E0,7.3275433E0,1.0088234E0,2.063304E0,3.814753E0,2.9919147E0,8.8805616E-1,1.3401408E0,1.0402809E1,2.5449874E0,9.573765E-1,2.6155022E-1,1.4375839E0,4.6307543E-1,9.7129107E-1,3.0262215E0,1.866366E0,8.5022545E-1,7.257011E-1,2.5538933E-1,5.4772806E-1,8.71629E-1,3.5035744E0,1.3161359E0,3.537066E-1,1.3534689E0,0E0,0E0,0E0,0E0,0E0,0E0,0E0,0E0,0E0,0E0,0E0,0E0,0E0,0E0,0E0,0E0,0E0,0E0,0E0,0E0,0E0,0E0,0E0,0E0,0E0,0E0,0E0,0E0,0E0,0E0,0E0,0E0],"parents":[2147483647,0,0,1,1,2,2,3,3,4,4,5,5,6,6,7,7,8,8,9,9,10,10,11,11,12,12,13,13,14,14,15,15,16,16,17,17,18,18,19,19,20,20,21,21,22,22,23,23,24,24,25,25,26,26,27,27,28,28,29,29,30,30],"right_children":[2,4,6,8,10,12,14,16,18,20,22,24,26,28,30,32,34,36,38,40,42,44,46,48,50,52,54,56,58,60,62,-1,-1,-1,-1,-1,-1,-1,-1,-1,-1,-1,-1,-1,-1,-1,-1,-1,-1,-1,-1,-1,-1,-1,-1,-1,-1,-1,-1,-1,-1,-1,-1],"split_conditions":[1.82E3,4.75001E1,4.75445E1,1.41E3,4E0,1.0514E4,-1.22097E2,5.0529E4,3.3042E4,8.7E2,2.28E3,1.989E3,4.73992E1,4.76892E1,9.8022E4,-1.2189E2,7.455877E0,3E0,5E0,9.8038E4,1E0,4.77239E1,3E0,4.73375E1,5.4E2,1.98E3,-1.22218E2,2.63E3,1E0,4.23E3,1E0,-1.426066E-2,2.1939364E-4,2.2655895E-2,-8.744868E-3,-7.6154494E-3,9.252383E-3,-3.0568618E-2,3.8192451E-3,-3.1424638E-2,-1.1339738E-2,-3.5162084E-3,7.2751814E-3,3.0033083E-3,-4.2512217E-3,9.0483185E-3,2.1926498E-2,-6.779869E-3,-1.2249964E-3,9.56254E-3,3.3056308E-2,4.517859E-4,2.06316E-2,1.6090646E-2,6.463391E-3,1.2971914E-2,2.2561816E-2,2.5955641E-3,3.0729769E-2,-1.1444674E-2,2.385814E-2,3.933881E-3,3.5261977E-2],"split_indices":[10,15,15,17,8,18,16,4,4,10,17,13,15,15,14,16,3,7,9,14,7,15,7,15,11,13,16,17,6,10,6,0,0,0,0,0,0,0,0,0,0,0,0,0,0,0,0,0,0,0,0,0,0,0,0,0,0,0,0,0,0,0,0],"split_type":[0,0,0,0,0,0,0,0,0,0,0,0,0,0,0,0,0,0,0,0,0,0,0,0,0,0,0,0,0,0,0,0,0,0,0,0,0,0,0,0,0,0,0,0,0,0,0,0,0,0,0,0,0,0,0,0,0,0,0,0,0,0,0],"sum_hessian":[1.6209E4,1.0423E4,5.786E3,3.285E3,7.138E3,2.274E3,3.512E3,9.84E2,2.301E3,4.184E3,2.954E3,1.476E3,7.98E2,2.358E3,1.154E3,9.72E2,1.2E1,2.091E3,2.1E2,4.39E2,3.745E3,2.543E3,4.11E2,1.443E3,3.3E1,3.57E2,4.41E2,1.556E3,8.02E2,1.25E2,1.029E3,9.24E2,4.8E1,9E0,3E0,2.04E3,5.1E1,3E0,2.07E2,2.5E1,4.14E2,3.465E3,2.8E2,2.118E3,4.25E2,3.51E2,6E1,2.95E2,1.148E3,2.8E1,5E0,3.44E2,1.3E1,1.37E2,3.04E2,8.69E2,6.87E2,7.86E2,1.6E1,1.23E2,2E0,1.016E3,1.3E1],"tree_param":{"num_deleted":"0","num_feature":"20","num_nodes":"63","size_leaf_vector":"1"}},{"base_weights":[1.4830977E-4,-2.7295629E-2,5.728489E-2,-5.4141216E-2,7.117152E-3,4.0772058E-2,1.4290938E-1,2.323589E-2,-6.334963E-2,5.253333E-2,-3.1851415E-2,-1.646091E-2,5.9929736E-2,2.5897285E-1,1.2005021E-1,-9.9465795E-2,3.738636E-2,-9.0438396E-2,-3.1767342E-2,8.5709535E-2,-4.9653273E-2,-1.394742E-1,-2.5114665E-2,-2.6892027E-2,6.424292E-2,3.2372136E-2,1.10122345E-1,1.710954E-1,3.4072742E-1,9.178979E-2,2.3384388E-1,-2.0121016E-2,-8.819703E-3,-2.308E-2,4.3374277E-3,-2.0972054E-2,-8.16692E-3,-5.595948E-3,5.1776867E-4,7.1052983E-3,2.386148E-2,-1.8052462E-2,-2.8663902E-3,-2.581746E-2,-1.1058883E-2,5.453565E-4,-5.47715E-3,-4.3921224E-3,2.4166435E-3,-1.8975091E-3,9.131306E-3,2.5564015E-2,2.6235217E-3,1.5167913E-2,6.851956E-3,1.8448357E-2,-1.8493883E-2,3.5627395E-2,6.4258203E-3,1.0156526E-2,-7.634528E-3,1.957023E-2,3.684444E-2],"categories":[],"categories_nodes":[],"categories_segments":[],"categories_sizes":[],"default_left":[0,0,0,0,0,0,0,0,0,0,0,0,0,0,0,0,0,0,0,0,0,0,0,0,0,0,0,0,0,0,0,0,0,0,0,0,0,0,0,0,0,0,0,0,0,0,0,0,0,0,0,0,0,0,0,0,0,0,0,0,0,0,0],"id":22,"left_children":[1,3,5,7,9,11,13,15,17,19,21,23,25,27,29,31,33,35,37,39,41,43,45,47,49,51,53,55,57,59,61,-1,-1,-1,-1,-1,-1,-1,-1,-1,-1,-1,-1,-1,-1,-1,-1,-1,-1,-1,-1,-1,-1,-1,-1,-1,-1,-1,-1,-1,-1,-1,-1],"loss_changes":[2.5419699E1,1.0117263E1,7.431305E0,4.384897E0,8.496729E0,4.837431E0,2.2240582E0,1.1409866E0,4.7008038E0,7.52025E0,1.8699689E0,9.3363464E-1,4.567871E0,9.4033337E-1,2.2682257E0,6.0218096E-2,9.5426583E-1,3.0780106E0,2.2704892E0,3.7345886E0,1.489143E0,4.9261212E-1,2.2059517E0,8.540259E-1,2.878285E-1,2.9186218E0,2.014123E0,3.630166E-1,2.822733E-1,9.478936E-1,6.517706E-1,0E0,0E0,0E0,0E0,0E0,0E0,0E0,0E0,0E0,0E0,0E0,0E0,0E0,0E0,0E0,0E0,0E0,0E0,0E0,0E0,0E0,0E0,0E0,0E0,0E0,0E0,0E0,0E0,0E0,0E0,0E0,0E0],"parents":[2147483647,0,0,1,1,2,2,3,3,4,4,5,5,6,6,7,7,8,8,9,9,10,10,11,11,12,12,13,13,14,14,15,15,16,16,17,17,18,18,19,19,20,20,21,21,22,22,23,23,24,24,25,25,26,26,27,27,28,28,29,29,30,30],"right_children":[2,4,6,8,10,12,14,16,18,20,22,24,26,28,30,32,34,36,38,40,42,44,46,48,50,52,54,56,58,60,62,-1,-1,-1,-1,-1,-1,-1,-1,-1,-1,-1,-1,-1,-1,-1,-1,-1,-1,-1,-1,-1,-1,-1,-1,-1,-1,-1,-1,-1,-1,-1,-1],"split_conditions":[2.16E3,4.76029E1,3.25E0,-1.22376E2,4.76861E1,4.7476E1,1.966E3,9.8024E4,-1.22209E2,-1.22188E2,2.693E3,2E0,4E0,2.9E3,4.23E3,1.25E0,3E0,3.292E3,4.74681E1,-1.22282E2,7.130899E0,7.0647593E0,4.77239E1,-1.22067E2,4.73287E1,9.8005E4,-1.22196E2,5.75E0,4.76971E1,4.77351E1,4.75E0,-2.0121016E-2,-8.819703E-3,-2.308E-2,4.3374277E-3,-2.0972054E-2,-8.16692E-3,-5.595948E-3,5.1776867E-4,7.1052983E-3,2.386148E-2,-1.8052462E-2,-2.8663902E-3,-2.581746E-2,-1.1058883E-2,5.453565E-4,-5.47715E-3,-4.3921224E-3,2.4166435E-3,-1.8975091E-3,9.131306E-3,2.5564015E-2,2.6235217E-3,1.5167913E-2,6.851956E-3,1.8448357E-2,-1.8493883E-2,3.5627395E-2,6.4258203E-3,1.0156526E-2,-7.634528E-3,1.957023E-2,3.684444E-2],"split_indices":[17,15,2,16,15,15,12,14,16,16,4,7,8,17,10,2,8,4,15,16,3,3,15,16,15,14,16,2,15,15,2,0,0,0,0,0,0,0,0,0,0,0,0,0,0,0,0,0,0,0,0,0,0,0,0,0,0,0,0,0,0,0,0],"split_type":[0,0,0,0,0,0,0,0,0,0,0,0,0,0,0,0,0,0,0,0,0,0,0,0,0,0,0,0,0,0,0,0,0,0,0,0,0,0,0,0,0,0,0,0,0,0,0,0,0,0,0,0,0,0,0,0,0,0,0,0,0,0,0],"sum_hessian":[1.6209E4,1.095E4,5.259E3,6.151E3,4.799E3,4.41E3,8.49E2,6.54E2,5.497E3,2.216E3,2.583E3,1.106E3,3.304E3,1.38E2,7.11E2,6.7E1,5.87E2,2.958E3,2.539E3,1.673E3,5.43E2,1.51E2,2.432E3,9.8E2,1.26E2,2.134E3,1.17E3,6.8E1,7E1,5.71E2,1.4E2,5E0,6.2E1,1.2E1,5.75E2,2.01E2,2.757E3,1.534E3,1.005E3,1.528E3,1.45E2,7.4E1,4.69E2,2.8E1,1.23E2,1.198E3,1.234E3,7.35E2,2.45E2,3.1E1,9.5E1,5.6E1,2.078E3,5.84E2,5.86E2,6.6E1,2E0,6.6E1,4E0,5.4E2,3.1E1,1.11E2,2.9E1],"tree_param":{"num_deleted":"0","num_feature":"20","num_nodes":"63","size_leaf_vector":"1"}},{"base_weights":[1.3611309E-4,-2.7600106E-2,5.0096754E-2,-9.0712175E-2,-1.4742782E-2,3.5468247E-2,1.3119188E-1,-1.5294455E-1,-7.1874596E-2,-3.9925482E-2,2.0137096E-2,-1.0466556E-3,6.065911E-2,1.12705976E-1,3.059064E-1,-1.661955E-1,1.8291919E-1,-8.5426494E-2,-2.0420138E-2,-1.09562725E-1,-2.5355827E-2,-3.742458E-2,3.3074893E-2,-8.473874E-3,1.01786815E-1,2.4672753E-1,5.3654876E-2,1.2632814E-1,-4.6135597E-2,-1.4099938E-2,3.129896E-1,-2.177546E-2,-1.366003E-2,5.1844004E-3,3.4403816E-2,-8.834951E-3,1.5970707E-2,-9.599393E-3,2.5138446E-5,-2.3018487E-2,-9.772713E-3,4.053151E-3,-3.8419755E-3,2.5206462E-3,-5.4412796E-3,2.8601782E-3,1.650826E-2,-1.6949823E-3,4.7254623E-3,7.7431626E-3,2.170194E-2,2.676542E-2,2.115887E-3,6.8724784E-3,-1.4907526E-3,1.1123901E-2,2.3943132E-2,-9.833766E-3,5.7992777E-3,2.4727315E-2,3.712539E-2],"categories":[],"categories_nodes":[],"categories_segments":[],"categories_sizes":[],"default_left":[0,0,0,0,0,0,0,0,0,0,0,0,0,0,0,0,0,0,0,0,0,0,0,0,0,0,0,0,0,0,0,0,0,0,0,0,0,0,0,0,0,0,0,0,0,0,0,0,0,0,0,0,0,0,0,0,0,0,0,0,0],"id":23,"left_children":[1,3,5,7,9,11,13,15,17,19,21,23,25,27,29,31,33,35,37,39,41,43,45,47,49,51,53,55,57,-1,59,-1,-1,-1,-1,-1,-1,-1,-1,-1,-1,-1,-1,-1,-1,-1,-1,-1,-1,-1,-1,-1,-1,-1,-1,-1,-1,-1,-1,-1,-1],"loss_changes":[2.2463892E1,8.457241E0,6.860468E0,2.0569563E0,7.608362E0,4.5109687E0,2.8206282E0,1.8506603E0,9.4380236E-1,5.1006126E0,2.7060652E0,1.5306871E0,3.7688417E0,1.7390041E0,3.1003523E-1,5.714607E-1,3.2006282E-1,7.829437E-1,4.4369605E-1,1.2195473E0,3.5831265E0,7.110526E-1,1.7466567E0,8.836266E-1,3.6207473E-1,4.899788E-1,2.8919983E0,1.2328577E0,3.535887E-1,0E0,2.2599888E-1,0E0,0E0,0E0,0E0,0E0,0E0,0E0,0E0,0E0,0E0,0E0,0E0,0E0,0E0,0E0,0E0,0E0,0E0,0E0,0E0,0E0,0E0,0E0,0E0,0E0,0E0,0E0,0E0,0E0,0E0],"parents":[2147483647,0,0,1,1,2,2,3,3,4,4,5,5,6,6,7,7,8,8,9,9,10,10,11,11,12,12,13,13,14,14,15,15,16,16,17,17,18,18,19,19,20,20,21,21,22,22,23,23,24,24,25,25,26,26,27,27,28,28,30,30],"right_children":[2,4,6,8,10,12,14,16,18,20,22,24,26,28,30,32,34,36,38,40,42,44,46,48,50,52,54,56,58,-1,60,-1,-1,-1,-1,-1,-1,-1,-1,-1,-1,-1,-1,-1,-1,-1,-1,-1,-1,-1,-1,-1,-1,-1,-1,-1,-1,-1,-1,-1,-1],"split_conditions":[1.82E3,4.73992E1,1E0,7.130899E0,4E0,4.75445E1,1E0,5.445E4,-1.22076E2,7E0,7E0,9.6574E4,9.8005E4,-1.21981E2,1.2303964E8,4E0,1.942E3,1E0,4.72119E1,3E0,1.942E3,-1.22358E2,3E0,3.03E3,2.73556E5,-1.22192E2,4.77296E1,3.75E3,1E1,-1.4099938E-2,-1.22251E2,-2.177546E-2,-1.366003E-2,5.1844004E-3,3.4403816E-2,-8.834951E-3,1.5970707E-2,-9.599393E-3,2.5138446E-5,-2.3018487E-2,-9.772713E-3,4.053151E-3,-3.8419755E-3,2.5206462E-3,-5.4412796E-3,2.8601782E-3,1.650826E-2,-1.6949823E-3,4.7254623E-3,7.7431626E-3,2.170194E-2,2.676542E-2,2.115887E-3,6.8724784E-3,-1.4907526E-3,1.1123901E-2,2.3943132E-2,-9.833766E-3,5.7992777E-3,2.4727315E-2,3.712539E-2],"split_indices":[10,15,7,3,8,15,6,4,16,9,9,4,14,16,0,8,12,6,15,8,12,16,7,10,4,16,15,17,9,0,16,0,0,0,0,0,0,0,0,0,0,0,0,0,0,0,0,0,0,0,0,0,0,0,0,0,0,0,0,0,0],"split_type":[0,0,0,0,0,0,0,0,0,0,0,0,0,0,0,0,0,0,0,0,0,0,0,0,0,0,0,0,0,0,0,0,0,0,0,0,0,0,0,0,0,0,0,0,0,0,0,0,0,0,0,0,0,0,0,0,0,0,0,0,0],"sum_hessian":[1.6209E4,1.0423E4,5.786E3,1.763E3,8.66E3,4.903E3,8.83E2,4.08E2,1.355E3,5.029E3,3.631E3,2.002E3,2.901E3,8E2,8.3E1,3.93E2,1.5E1,1.072E3,2.83E2,8.69E2,4.16E3,6.66E2,2.965E3,1.868E3,1.34E2,1.04E2,2.797E3,7.37E2,6.3E1,1E0,8.2E1,1.41E2,2.52E2,9E0,6E0,1.06E3,1.2E1,6E1,2.23E2,7.6E1,7.93E2,6.88E2,3.472E3,1.42E2,5.24E2,2.869E3,9.6E1,1.622E3,2.46E2,1.12E2,2.2E1,9.5E1,9E0,2.293E3,5.04E2,6.52E2,8.5E1,4.2E1,2.1E1,4.1E1,4.1E1],"tree_param":{"num_deleted":"0","num_feature":"20","num_nodes":"61","size_leaf_vector":"1"}},{"base_weights":[1.3059501E-4,-3.485062E-2,3.25306E-2,-5.687938E-2,-3.1841411E-3,2.729717E-2,2.1302393E-1,2.4024596E-2,-6.510543E-2,3.4383535E-2,-3.9685093E-2,-8.1153065E-3,4.9055044E-2,1.5960635E-1,2.911891E-1,1.2196823E-2,1.1453574E-1,-1.55584E-1,-5.7193104E-2,5.45478E-2,-6.3428484E-2,-1.5027827E-1,-3.1309392E-2,-3.1049024E-2,2.8688977E-2,6.5601766E-2,-2.3567017E-2,1.8156235E-1,1.549884E-2,2.9835084E-1,-2.7887097E-2,5.592361E-4,1.5172705E-2,1.5278274E-2,1.7657029E-3,-2.6545513E-2,-1.2395787E-2,-1.28801465E-2,-4.908167E-3,-8.410336E-4,7.419514E-3,-1.9746847E-2,-3.856775E-3,-5.926245E-2,-1.4111923E-2,-1.0820552E-3,-7.1107745E-3,-6.5283286E-3,-1.3421433E-3,-4.174205E-3,4.6598883E-3,1.112466E-2,2.5648286E-3,-3.679515E-3,1.0347976E-2,1.566235E-2,4.012729E-2,1.1017024E-2,-4.39527E-3,2.3489444E-2,3.6367968E-2,-1.0306442E-2,6.1233775E-3],"categories":[],"categories_nodes":[],"categories_segments":[],"categories_sizes":[],"default_left":[0,0,0,0,0,0,0,0,0,0,0,0,0,0,0,0,0,0,0,0,0,0,0,0,0,0,0,0,0,0,0,0,0,0,0,0,0,0,0,0,0,0,0,0,0,0,0,0,0,0,0,0,0,0,0,0,0,0,0,0,0,0,0],"id":24,"left_children":[1,3,5,7,9,11,13,15,17,19,21,23,25,27,29,31,33,35,37,39,41,43,45,47,49,51,53,55,57,59,61,-1,-1,-1,-1,-1,-1,-1,-1,-1,-1,-1,-1,-1,-1,-1,-1,-1,-1,-1,-1,-1,-1,-1,-1,-1,-1,-1,-1,-1,-1,-1,-1],"loss_changes":[1.837341E1,5.4374037E0,7.9439316E0,3.0609589E0,4.388012E0,6.30309E0,9.430933E-1,4.535848E-1,2.9785366E0,3.113789E0,1.4986725E0,2.6292906E0,6.0903406E0,4.49641E-1,2.2540665E-1,3.4656525E-1,1.7886299E-1,1.1311522E0,2.2235498E0,1.6185672E0,8.921138E-1,3.7823606E-1,1.2305177E0,1.1571779E0,1.510595E0,7.523432E0,1.5852442E0,6.165881E-1,1.1740947E-1,3.001089E-1,2.6410628E-2,0E0,0E0,0E0,0E0,0E0,0E0,0E0,0E0,0E0,0E0,0E0,0E0,0E0,0E0,0E0,0E0,0E0,0E0,0E0,0E0,0E0,0E0,0E0,0E0,0E0,0E0,0E0,0E0,0E0,0E0,0E0,0E0],"parents":[2147483647,0,0,1,1,2,2,3,3,4,4,5,5,6,6,7,7,8,8,9,9,10,10,11,11,12,12,13,13,14,14,15,15,16,16,17,17,18,18,19,19,20,20,21,21,22,22,23,23,24,24,25,25,26,26,27,27,28,28,29,29,30,30],"right_children":[2,4,6,8,10,12,14,16,18,20,22,24,26,28,30,32,34,36,38,40,42,44,46,48,50,52,54,56,58,60,62,-1,-1,-1,-1,-1,-1,-1,-1,-1,-1,-1,-1,-1,-1,-1,-1,-1,-1,-1,-1,-1,-1,-1,-1,-1,-1,-1,-1,-1,-1,-1,-1],"split_conditions":[1.81E3,4.76163E1,4E0,-1.22378E2,4.76914E1,4.75445E1,1E0,1.89E3,3.292E3,-1.22186E2,2.135E3,1.0004E4,4.77296E1,-1.22103E2,4.77528E1,1.999E3,3.5293E9,7.029973E0,6.8243737E0,9.7E2,7.07327E0,8E2,4.77364E1,1.983E3,4.73344E1,-1.22188E2,4.705E4,3.96E3,9.8055E4,4.75705E1,4.036801E9,5.592361E-4,1.5172705E-2,1.5278274E-2,1.7657029E-3,-2.6545513E-2,-1.2395787E-2,-1.28801465E-2,-4.908167E-3,-8.410336E-4,7.419514E-3,-1.9746847E-2,-3.856775E-3,-5.926245E-2,-1.4111923E-2,-1.0820552E-3,-7.1107745E-3,-6.5283286E-3,-1.3421433E-3,-4.174205E-3,4.6598883E-3,1.112466E-2,2.5648286E-3,-3.679515E-3,1.0347976E-2,1.566235E-2,4.012729E-2,1.1017024E-2,-4.39527E-3,2.3489444E-2,3.6367968E-2,-1.0306442E-2,6.1233775E-3],"split_indices":[17,15,7,16,15,15,6,10,4,16,18,18,15,16,15,13,0,3,3,10,3,10,15,12,15,16,4,17,14,15,0,0,0,0,0,0,0,0,0,0,0,0,0,0,0,0,0,0,0,0,0,0,0,0,0,0,0,0,0,0,0,0,0],"split_type":[0,0,0,0,0,0,0,0,0,0,0,0,0,0,0,0,0,0,0,0,0,0,0,0,0,0,0,0,0,0,0,0,0,0,0,0,0,0,0,0,0,0,0,0,0,0,0,0,0,0,0,0,0,0,0,0,0,0,0,0,0,0,0],"sum_hessian":[1.6209E4,7.794E3,8.415E3,4.596E3,3.198E3,8.179E3,2.36E2,4.24E2,4.172E3,1.576E3,1.622E3,3.113E3,5.066E3,1.42E2,9.4E1,3.76E2,4.8E1,3.34E2,3.838E3,1.307E3,2.69E2,1.13E2,1.509E3,1.918E3,1.195E3,4.126E3,9.4E2,1.23E2,1.9E1,9.2E1,2E0,3.6E2,1.6E1,3.4E1,1.4E1,7.3E1,2.61E2,3.89E2,3.449E3,3.11E2,9.96E2,4.1E1,2.28E2,1E0,1.12E2,9.97E2,5.12E2,6.51E2,1.267E3,2.42E2,9.53E2,1.925E3,2.201E3,8.52E2,8.8E1,1.12E2,1.1E1,7E0,1.2E1,4.9E1,4.3E1,1E0,1E0],"tree_param":{"num_deleted":"0","num_feature":"20","num_nodes":"63","size_leaf_vector":"1"}},{"base_weights":[1.1806729E-4,-2.3391547E-2,4.2465415E-2,-7.71682E-2,-1.243607E-2,3.463363E-2,1.547607E-1,-1.3110064E-1,-6.084405E-2,-3.4437496E-2,1.8037392E-2,3.49472E-3,5.5901922E-2,2.400882E-1,1.0217945E-1,-1.430271E-1,1.7078218E-1,-6.744862E-2,2.4625424E-2,-9.3306E-2,-2.2120737E-2,-2.9601075E-2,2.8744344E-2,-1.7120102E-2,3.454225E-2,7.849841E-2,-4.8076618E-3,1.9601862E-1,3.5258096E-1,7.281594E-2,1.8293867E-1,-2.0671723E-2,-1.2124214E-2,7.45348E-3,3.6761947E-2,-7.900514E-3,-2.0490543E-3,1.8910578E-2,3.7855483E-4,-2.0163838E-2,-8.26827E-3,3.315257E-3,-3.3079905E-3,-1.2879646E-2,-2.082884E-3,1.5937019E-3,6.5571773E-3,-2.0116556E-3,1.0821993E-2,2.92821E-4,6.2164506E-3,1.0878227E-2,7.1172236E-4,-1.06665855E-2,1.4792355E-3,-9.528719E-4,2.107978E-2,2.0039802E-2,4.4973444E-2,8.746234E-3,7.5855065E-4,1.1607858E-2,2.5501812E-2],"categories":[],"categories_nodes":[],"categories_segments":[],"categories_sizes":[],"default_left":[0,0,0,0,0,0,0,0,0,0,0,0,0,0,0,0,0,0,0,0,0,0,0,0,0,0,0,0,0,0,0,0,0,0,0,0,0,0,0,0,0,0,0,0,0,0,0,0,0,0,0,0,0,0,0,0,0,0,0,0,0,0,0],"id":25,"left_children":[1,3,5,7,9,11,13,15,17,19,21,23,25,27,29,31,33,35,37,39,41,43,45,47,49,51,53,55,57,59,61,-1,-1,-1,-1,-1,-1,-1,-1,-1,-1,-1,-1,-1,-1,-1,-1,-1,-1,-1,-1,-1,-1,-1,-1,-1,-1,-1,-1,-1,-1,-1,-1],"loss_changes":[1.6139181E1,6.140328E0,5.0841465E0,1.5450506E0,5.8074718E0,3.583355E0,1.6669264E0,1.4969878E0,7.671089E-1,3.6450334E0,1.8533989E0,1.4067578E0,4.4107885E0,6.398115E-1,5.43952E-1,5.216074E-1,2.7572075E-1,6.816044E-1,3.3520365E-1,9.8456526E-1,2.52162E0,5.777174E-1,1.397901E0,4.9831223E-1,7.65659E-1,5.064085E0,1.7444544E0,3.2098007E-1,4.864931E-1,1.6557461E-1,2.6919055E-1,0E0,0E0,0E0,0E0,0E0,0E0,0E0,0E0,0E0,0E0,0E0,0E0,0E0,0E0,0E0,0E0,0E0,0E0,0E0,0E0,0E0,0E0,0E0,0E0,0E0,0E0,0E0,0E0,0E0,0E0,0E0,0E0],"parents":[2147483647,0,0,1,1,2,2,3,3,4,4,5,5,6,6,7,7,8,8,9,9,10,10,11,11,12,12,13,13,14,14,15,15,16,16,17,17,18,18,19,19,20,20,21,21,22,22,23,23,24,24,25,25,26,26,27,27,28,28,29,29,30,30],"right_children":[2,4,6,8,10,12,14,16,18,20,22,24,26,28,30,32,34,36,38,40,42,44,46,48,50,52,54,56,58,60,62,-1,-1,-1,-1,-1,-1,-1,-1,-1,-1,-1,-1,-1,-1,-1,-1,-1,-1,-1,-1,-1,-1,-1,-1,-1,-1,-1,-1,-1,-1,-1,-1],"split_conditions":[1.82E3,4.73992E1,3.67E3,7.130899E0,4E0,4.75445E1,-1.22153E2,5.445E4,3.094E4,7E0,7E0,1.02E4,-1.22067E2,5.727501E9,8.465899E0,3E0,1.953E3,-1.22076E2,7.192934E0,3E0,1.942E3,7E2,5E0,1.987E3,4.73992E1,4.77026E1,9.8027E4,-1.22371E2,1.6552E4,-1.21993E2,3.5315E4,-2.0671723E-2,-1.2124214E-2,7.45348E-3,3.6761947E-2,-7.900514E-3,-2.0490543E-3,1.8910578E-2,3.7855483E-4,-2.0163838E-2,-8.26827E-3,3.315257E-3,-3.3079905E-3,-1.2879646E-2,-2.082884E-3,1.5937019E-3,6.5571773E-3,-2.0116556E-3,1.0821993E-2,2.92821E-4,6.2164506E-3,1.0878227E-2,7.1172236E-4,-1.06665855E-2,1.4792355E-3,-9.528719E-4,2.107978E-2,2.0039802E-2,4.4973444E-2,8.746234E-3,7.5855065E-4,1.1607858E-2,2.5501812E-2],"split_indices":[10,15,17,3,8,15,16,4,4,9,9,4,16,0,3,1,12,16,3,8,12,10,8,13,15,15,14,16,4,16,4,0,0,0,0,0,0,0,0,0,0,0,0,0,0,0,0,0,0,0,0,0,0,0,0,0,0,0,0,0,0,0,0],"split_type":[0,0,0,0,0,0,0,0,0,0,0,0,0,0,0,0,0,0,0,0,0,0,0,0,0,0,0,0,0,0,0,0,0,0,0,0,0,0,0,0,0,0,0,0,0,0,0,0,0,0,0,0,0,0,0,0,0,0,0,0,0,0,0],"sum_hessian":[1.6209E4,1.0423E4,5.786E3,1.763E3,8.66E3,5.41E3,3.76E2,4.08E2,1.355E3,5.029E3,3.631E3,2.196E3,3.214E3,1.42E2,2.34E2,3.93E2,1.5E1,1.258E3,9.7E1,8.69E2,4.16E3,6.66E2,2.965E3,1.32E3,8.76E2,2.342E3,8.72E2,1.04E2,3.8E1,1.73E2,6.1E1,9.8E1,2.95E2,1.1E1,4E0,1.009E3,2.49E2,1E1,8.7E1,7.6E1,7.93E2,6.88E2,3.472E3,5.3E1,6.13E2,2.201E3,7.64E2,1.29E3,3E1,4.09E2,4.67E2,1.644E3,6.98E2,1.4E2,7.32E2,7E0,9.7E1,1.6E1,2.2E1,1.41E2,3.2E1,3.3E1,2.8E1],"tree_param":{"num_deleted":"0","num_feature":"20","num_nodes":"63","size_leaf_vector":"1"}},{"base_weights":[1.145808E-4,-1.3346177E-2,6.2448274E-2,-6.853045E-2,-4.3929615E-3,4.9919654E-2,1.4969799E-1,-2.5097517E-2,-8.566993E-2,4.074206E-2,-1.3350671E-2,1.3295344E-1,3.7948873E-2,1.6427961E-1,-2.9586282E-2,-1.6424818E-1,-1.7270539E-2,-1.6414978E-1,-7.4834384E-2,-8.083865E-3,6.566601E-2,-2.292549E-2,2.5101056E-2,1.7225203E-1,1.8228782E-2,2.8667863E-2,1.4533868E-1,9.804446E-2,1.9770283E-1,1.3818037E-2,-2.3200975E-1,-3.3046678E-2,-1.2277565E-2,-2.2117712E-3,2.0065969E-2,-3.5288017E-2,-1.4518778E-2,-1.7883714E-2,-6.7877E-3,3.6884535E-3,-3.716039E-3,1.2344447E-2,2.6881145E-3,-2.8226122E-3,4.6102162E-3,1.8481581E-3,1.1058449E-2,1.3184589E-2,2.811158E-2,-4.3773595E-3,8.442562E-3,8.454578E-3,1.8194413E-3,1.1861616E-2,2.4883978E-2,2.2743484E-2,8.201797E-3,6.898027E-3,2.2841118E-2,7.388036E-3,-5.240098E-3,-2.6113126E-2,-5.7761865E-3],"categories":[],"categories_nodes":[],"categories_segments":[],"categories_sizes":[],"default_left":[0,0,0,0,0,0,0,0,0,0,0,0,0,0,0,0,0,0,0,0,0,0,0,0,0,0,0,0,0,0,0,0,0,0,0,0,0,0,0,0,0,0,0,0,0,0,0,0,0,0,0,0,0,0,0,0,0,0,0,0,0,0,0],"id":26,"left_children":[1,3,5,7,9,11,13,15,17,19,21,23,25,27,29,31,33,35,37,39,41,43,45,47,49,51,53,55,57,59,61,-1,-1,-1,-1,-1,-1,-1,-1,-1,-1,-1,-1,-1,-1,-1,-1,-1,-1,-1,-1,-1,-1,-1,-1,-1,-1,-1,-1,-1,-1,-1,-1],"loss_changes":[1.3601975E1,6.586729E0,3.139615E0,1.3832111E0,4.638747E0,2.4987884E0,9.486065E-1,5.7222366E-1,1.1221123E0,2.3127072E0,3.525051E0,1.4260602E0,2.1915326E0,7.2002316E-1,2.4921541E-1,1.524449E-1,5.3366715E-1,5.249376E-1,8.373523E-1,8.4210914E-1,2.815771E0,2.8058496E0,1.0781744E0,1.0010443E0,3.4025323E-1,1.1859025E0,4.5450044E-1,2.1774518E-1,8.578253E-1,9.932583E-2,1.0288358E-2,0E0,0E0,0E0,0E0,0E0,0E0,0E0,0E0,0E0,0E0,0E0,0E0,0E0,0E0,0E0,0E0,0E0,0E0,0E0,0E0,0E0,0E0,0E0,0E0,0E0,0E0,0E0,0E0,0E0,0E0,0E0,0E0],"parents":[2147483647,0,0,1,1,2,2,3,3,4,4,5,5,6,6,7,7,8,8,9,9,10,10,11,11,12,12,13,13,14,14,15,15,16,16,17,17,18,18,19,19,20,20,21,21,22,22,23,23,24,24,25,25,26,26,27,27,28,28,29,29,30,30],"right_children":[2,4,6,8,10,12,14,16,18,20,22,24,26,28,30,32,34,36,38,40,42,44,46,48,50,52,54,56,